{"learner":{"attributes":{"scikit_learn":"{\"_estimator_type\": \"classifier\"}"},"feature_names":["koi_period","koi_impact","koi_duration","koi_depth","koi_prad","koi_teq","koi_insol","koi_model_snr","koi_steff","koi_slogg","koi_srad","koi_kepmag","koi_fpflag_nt","koi_fpflag_ss","koi_fpflag_co","koi_fpflag_ec"],"feature_types":["float","float","float","float","float","float","float","float","float","float","float","float","int","int","int","int"],"gradient_booster":{"model":{"gbtree_model_param":{"num_parallel_tree":"1","num_trees":"600"},"iteration_indptr":[0,3,6,9,12,15,18,21,24,27,30,33,36,39,42,45,48,51,54,57,60,63,66,69,72,75,78,81,84,87,90,93,96,99,102,105,108,111,114,117,120,123,126,129,132,135,138,141,144,147,150,153,156,159,162,165,168,171,174,177,180,183,186,189,192,195,198,201,204,207,210,213,216,219,222,225,228,231,234,237,240,243,246,249,252,255,258,261,264,267,270,273,276,279,282,285,288,291,294,297,300,303,306,309,312,315,318,321,324,327,330,333,336,339,342,345,348,351,354,357,360,363,366,369,372,375,378,381,384,387,390,393,396,399,402,405,408,411,414,417,420,423,426,429,432,435,438,441,444,447,450,453,456,459,462,465,468,471,474,477,480,483,486,489,492,495,498,501,504,507,510,513,516,519,522,525,528,531,534,537,540,543,546,549,552,555,558,561,564,567,570,573,576,579,582,585,588,591,594,597,600],"tree_info":[0,1,2,0,1,2,0,1,2,0,1,2,0,1,2,0,1,2,0,1,2,0,1,2,0,1,2,0,1,2,0,1,2,0,1,2,0,1,2,0,1,2,0,1,2,0,1,2,0,1,2,0,1,2,0,1,2,0,1,2,0,1,2,0,1,2,0,1,2,0,1,2,0,1,2,0,1,2,0,1,2,0,1,2,0,1,2,0,1,2,0,1,2,0,1,2,0,1,2,0,1,2,0,1,2,0,1,2,0,1,2,0,1,2,0,1,2,0,1,2,0,1,2,0,1,2,0,1,2,0,1,2,0,1,2,0,1,2,0,1,2,0,1,2,0,1,2,0,1,2,0,1,2,0,1,2,0,1,2,0,1,2,0,1,2,0,1,2,0,1,2,0,1,2,0,1,2,0,1,2,0,1,2,0,1,2,0,1,2,0,1,2,0,1,2,0,1,2,0,1,2,0,1,2,0,1,2,0,1,2,0,1,2,0,1,2,0,1,2,0,1,2,0,1,2,0,1,2,0,1,2,0,1,2,0,1,2,0,1,2,0,1,2,0,1,2,0,1,2,0,1,2,0,1,2,0,1,2,0,1,2,0,1,2,0,1,2,0,1,2,0,1,2,0,1,2,0,1,2,0,1,2,0,1,2,0,1,2,0,1,2,0,1,2,0,1,2,0,1,2,0,1,2,0,1,2,0,1,2,0,1,2,0,1,2,0,1,2,0,1,2,0,1,2,0,1,2,0,1,2,0,1,2,0,1,2,0,1,2,0,1,2,0,1,2,0,1,2,0,1,2,0,1,2,0,1,2,0,1,2,0,1,2,0,1,2,0,1,2,0,1,2,0,1,2,0,1,2,0,1,2,0,1,2,0,1,2,0,1,2,0,1,2,0,1,2,0,1,2,0,1,2,0,1,2,0,1,2,0,1,2,0,1,2,0,1,2,0,1,2,0,1,2,0,1,2,0,1,2,0,1,2,0,1,2,0,1,2,0,1,2,0,1,2,0,1,2,0,1,2,0,1,2,0,1,2,0,1,2,0,1,2,0,1,2,0,1,2,0,1,2,0,1,2,0,1,2,0,1,2,0,1,2,0,1,2,0,1,2,0,1,2,0,1,2,0,1,2,0,1,2,0,1,2,0,1,2,0,1,2,0,1,2,0,1,2,0,1,2,0,1,2,0,1,2,0,1,2,0,1,2,0,1,2,0,1,2,0,1,2,0,1,2,0,1,2,0,1,2,0,1,2,0,1,2,0,1,2,0,1,2,0,1,2,0,1,2,0,1,2,0,1,2,0,1,2,0,1,2,0,1,2,0,1,2,0,1,2,0,1,2,0,1,2,0,1,2,0,1,2],"trees":[{"base_weights":[-3.8250935E-1,2.1278016E-1,-5.476612E-1,4.3866166E-1,-7.3830165E-2,2.5423726E-1,-5.606047E-1,-2.5464195E-1,5.640526E-1,-3.4285718E-1,1E0,-3.5294124E-1,-6.040499E-1,3.314913E-2,-4.9756104E-1,6.17334E-1,-6.741574E-2,-4.83871E-1,4.285714E-2,1.304348E-1,-4.2857148E-2,-2.351295E-1,-7.344111E-2,-5.7003814E-1,-7.4593626E-2,7.2413795E-2,-9.3167745E-2,-5.9627336E-1,-1.13207586E-1,7.473976E-1,2.6062843E-1,-2.5544848E-9,-5.555556E-1,-2.8721023E-1,4.752475E-1,-1.3770497E-1,-5.8869433E-1,-3.2231413E-2,4.897959E-2,-2.5544848E-9,-6.442954E-2,4.285714E-2,-3.6585372E-2,8.6603284E-2,2.5597265E-2,8.219174E-3,6E-2,-2.5544848E-9,-6.52174E-2,5.660377E-2,-3.201857E-2,-5.454546E-2,8.571429E-2,6.734694E-2,-2.8301893E-2,-6.2244307E-2,-4.8172563E-2],"categories":[],"categories_nodes":[],"categories_segments":[],"categories_sizes":[],"default_left":[0,0,0,0,0,0,0,0,0,0,0,0,0,0,0,0,0,0,0,0,0,0,0,0,0,0,0,0,0,0,0,0,0,0,0,0,0,0,0,0,0,0,0,0,0,0,0,0,0,0,0,0,0,0,0,0,0],"id":0,"left_children":[1,3,5,7,-1,9,11,13,15,17,19,21,23,25,27,29,-1,31,-1,-1,-1,33,-1,35,-1,-1,37,39,41,43,45,-1,47,49,51,53,55,-1,-1,-1,-1,-1,-1,-1,-1,-1,-1,-1,-1,-1,-1,-1,-1,-1,-1,-1,-1],"loss_changes":[1.5013148E2,7.167189E1,1.2543549E1,2.3528858E1,0E0,9.100242E0,1.0397675E1,2.9449434E0,1.5465485E1,1.4764977E0,4.4720497E0,9.080297E0,4.2617188E0,1.8228353E0,7.966962E-1,9.975899E0,0E0,3.5842276E-1,0E0,0E0,0E0,6.010788E0,0E0,6.271988E0,0E0,0E0,2.5475373E0,5.122342E-1,9.628558E-1,9.112846E0,3.590794E0,0E0,4.8309207E-1,4.3610287E0,4.8419704E0,4.185255E0,2.4249268E0,0E0,0E0,0E0,0E0,0E0,0E0,0E0,0E0,0E0,0E0,0E0,0E0,0E0,0E0,0E0,0E0,0E0,0E0,0E0,0E0],"parents":[2147483647,0,0,1,1,2,2,3,3,5,5,6,6,7,7,8,8,9,9,10,10,11,11,12,12,13,13,14,14,15,15,17,17,21,21,23,23,26,26,27,27,28,28,29,29,30,30,32,32,33,33,34,34,35,35,36,36],"right_children":[2,4,6,8,-1,10,12,14,16,18,20,22,24,26,28,30,-1,32,-1,-1,-1,34,-1,36,-1,-1,38,40,42,44,46,-1,48,50,52,54,56,-1,-1,-1,-1,-1,-1,-1,-1,-1,-1,-1,-1,-1,-1,-1,-1,-1,-1,-1,-1],"split_conditions":[1.43E1,1E0,1.02E0,4.18E0,-7.3830165E-2,2.3402E3,1.93E1,5.745E3,1E0,4.9571094E2,2.851E2,1E0,1E0,6E-3,3.8639832E2,1.26E1,-6.741574E-2,8.891323E1,4.285714E-2,1.304348E-1,-4.2857148E-2,9.72E-1,-7.344111E-2,3.835E0,-7.4593626E-2,7.2413795E-2,2.75E0,4.163E0,6.035E3,1.439E0,5.944E3,-2.5544848E-9,6.587E2,7.054419E-1,4.866341E0,9.1E-2,2.1115E3,-3.2231413E-2,4.897959E-2,-2.5544848E-9,-6.442954E-2,4.285714E-2,-3.6585372E-2,8.6603284E-2,2.5597265E-2,8.219174E-3,6E-2,-2.5544848E-9,-6.52174E-2,5.660377E-2,-3.201857E-2,-5.454546E-2,8.571429E-2,6.734694E-2,-2.8301893E-2,-6.2244307E-2,-4.8172563E-2],"split_indices":[7,14,6,6,0,3,7,8,15,0,7,14,14,1,0,7,0,0,0,0,0,1,0,9,0,0,4,9,8,10,8,0,3,0,0,1,3,0,0,0,0,0,0,0,0,0,0,0,0,0,0,0,0,0,0,0,0],"split_type":[0,0,0,0,0,0,0,0,0,0,0,0,0,0,0,0,0,0,0,0,0,0,0,0,0,0,0,0,0,0,0,0,0,0,0,0,0,0,0,0,0,0,0,0,0,0,0,0,0,0,0,0,0,0,0,0,0],"sum_hessian":[1.5248888E3,3.3111108E2,1.1937777E3,2.6799997E2,6.3111107E1,1.8666666E1,1.1751111E3,4.0888885E1,2.271111E2,1.0666666E1,7.9999995E0,2.0488887E2,9.7022217E2,1.911111E1,2.1777777E1,2.1822221E2,8.888888E0,9.333333E0,1.3333333E0,6.666666E0,1.3333333E0,1.5777777E2,4.7111107E1,7.866666E2,1.8355554E2,2.222222E0,1.6888887E1,1.6888887E1,4.8888884E0,1.591111E2,5.9111107E1,1.3333333E0,7.9999995E0,1.4755554E2,1.0222221E1,3.2888885E1,7.537777E2,1.2444444E1,4.444444E0,1.3333333E0,1.5555554E1,1.3333333E0,3.5555553E0,1.2755555E2,3.1555553E1,3.9555553E1,1.9555553E1,1.3333333E0,6.666666E0,4.8888884E0,1.4266666E2,2.6666665E0,7.5555553E0,4.444444E0,2.8444443E1,5.693333E2,1.8444443E2],"tree_param":{"num_deleted":"0","num_feature":"16","num_nodes":"57","size_leaf_vector":"1"}},{"base_weights":[3.3535203E-1,5.938206E-1,-7.474481E-2,7.713134E-1,-6.3597435E-1,-2.9493093E-1,1.0397E0,-4.7582212E-1,-7.2228454E-2,-4.8087883E-1,2.0463804E-2,1.0755837E0,-7.080746E-2,-5.209581E-1,6E-2,-5.0620353E-1,7.2413795E-2,4.8066294E-1,-1.283423E-1,1.1295168E0,3.4333956E-1,1.9999997E-1,-5.806452E-1,-4.3676946E-2,-7.256319E-2,6.470588E-2,-3.2432437E-2,-6.575343E-2,-4.8289783E-3,1.1596749E-1,-1.0169497E-2,-1.4163095E-2,6.990291E-2,5.454545E-2,-4.2857148E-2,7.31707E-3,-6.3048504E-2],"categories":[],"categories_nodes":[],"categories_segments":[],"categories_sizes":[],"default_left":[0,0,0,0,0,0,0,0,0,0,0,0,0,0,0,0,0,0,0,0,0,0,0,0,0,0,0,0,0,0,0,0,0,0,0,0,0],"id":1,"left_children":[1,3,-1,5,7,9,11,13,-1,15,17,19,-1,21,-1,23,-1,25,27,29,31,33,35,-1,-1,-1,-1,-1,-1,-1,-1,-1,-1,-1,-1,-1,-1],"loss_changes":[4.266233E2,2.6895047E2,0E0,3.079983E2,1.8080635E0,1.27362385E1,5.4649048E1,3.1019812E0,0E0,4.533783E0,5.63904E0,3.2877808E1,0E0,2.511571E0,0E0,1.729744E0,0E0,2.9036708E0,2.608884E0,2.9232788E1,1.0314773E1,1.3194804E0,1.7297478E0,0E0,0E0,0E0,0E0,0E0,0E0,0E0,0E0,0E0,0E0,0E0,0E0,0E0,0E0],"parents":[2147483647,0,0,1,1,3,3,4,4,5,5,6,6,7,7,9,9,10,10,11,11,13,13,15,15,17,17,18,18,19,19,20,20,21,21,22,22],"right_children":[2,4,-1,6,8,10,12,14,-1,16,18,20,-1,22,-1,24,-1,26,28,30,32,34,36,-1,-1,-1,-1,-1,-1,-1,-1,-1,-1,-1,-1,-1,-1],"split_conditions":[1E0,1.357E1,-7.474481E-2,1.33E1,2.977E1,1.15E1,1E0,3.5065E3,-7.2228454E-2,4.724E0,5.344E3,9.4E0,-7.080746E-2,1.4474E0,6E-2,6.0633E0,7.2413795E-2,1.143E3,3.59E2,1.964E3,2.67E1,1.0049E3,3.565E0,-4.3676946E-2,-7.256319E-2,6.470588E-2,-3.2432437E-2,-6.575343E-2,-4.8289783E-3,1.1596749E-1,-1.0169497E-2,-1.4163095E-2,6.990291E-2,5.454545E-2,-4.2857148E-2,7.31707E-3,-6.3048504E-2],"split_indices":[14,4,0,7,4,7,15,7,0,9,8,2,0,2,0,2,0,5,5,5,7,3,9,0,0,0,0,0,0,0,0,0,0,0,0,0,0],"split_type":[0,0,0,0,0,0,0,0,0,0,0,0,0,0,0,0,0,0,0,0,0,0,0,0,0,0,0,0,0,0,0,0,0,0,0,0,0],"sum_hessian":[1.5217777E3,1.2288888E3,2.928889E2,1.0742222E3,1.5466666E2,2.1599998E2,8.5822217E2,5.6444443E1,9.822221E1,1.3555554E2,8.044444E1,8.413333E2,1.6888887E1,5.4666664E1,1.7777777E0,1.3333333E2,2.222222E0,1.911111E1,6.133333E1,7.831111E2,5.8222218E1,3.9999998E0,5.0666664E1,1.0355555E2,2.9777777E1,1.5999999E1,3.111111E0,7.1111107E0,5.4222218E1,7.644444E2,1.8666666E1,2.4888887E1,3.3333332E1,2.6666665E0,1.3333333E0,3.5555553E0,4.7111107E1],"tree_param":{"num_deleted":"0","num_feature":"16","num_nodes":"37","size_leaf_vector":"1"}},{"base_weights":[4.6504848E-2,-3.0040383E-1,1.494942E-1,-5.274425E-1,1.4271395E-1,-7.025715E-1,1.4496894E0,-7.311348E-1,1.392E-1,4.285714E-2,1.4602774E-1,2.7272725E-1,-7.341106E-1,-4.2857148E-2,8.571428E-2,-2.9323313E-2,-7.400251E-2],"categories":[],"categories_nodes":[],"categories_segments":[],"categories_sizes":[],"default_left":[0,0,0,0,0,0,0,0,0,0,0,0,0,0,0,0,0],"id":2,"left_children":[1,3,-1,5,-1,7,9,11,-1,-1,-1,13,15,-1,-1,-1,-1],"loss_changes":[7.711905E2,4.8645068E2,0E0,3.802427E2,0E0,6.1251038E1,3.4120178E-1,3.1691895E0,0E0,0E0,0E0,1.8701298E0,2.3677368E0,0E0,0E0,0E0,0E0],"parents":[2147483647,0,0,1,1,3,3,5,5,6,6,7,7,11,11,12,12],"right_children":[2,4,-1,6,-1,8,10,12,-1,-1,-1,14,16,-1,-1,-1,-1],"split_conditions":[1E0,1E0,1.494942E-1,1E0,1.4271395E-1,1E0,1.88E2,4.4527707E-1,1.392E-1,4.285714E-2,1.4602774E-1,2.857E2,7.4E0,-4.2857148E-2,8.571428E-2,-2.9323313E-2,-7.400251E-2],"split_indices":[14,13,0,12,0,15,5,0,0,0,0,3,7,0,0,0,0],"split_type":[0,0,0,0,0,0,0,0,0,0,0,0,0,0,0,0,0],"sum_hessian":[1.5328888E3,1.2373333E3,2.9555554E2,1.0942222E3,1.431111E2,1.0057777E3,8.844444E1,9.9288885E2,1.2888888E1,1.3333333E0,8.711111E1,2.6666665E0,9.9022217E2,1.3333333E0,1.3333333E0,1.3777777E1,9.764444E2],"tree_param":{"num_deleted":"0","num_feature":"16","num_nodes":"17","size_leaf_vector":"1"}},{"base_weights":[-3.6218366E-1,2.4433266E-1,-5.045746E-1,4.6750647E-1,-7.090824E-2,-1.8403532E-1,-5.4406136E-1,-2.6407218E-1,6.0407853E-1,-3.6840227E-2,-6.982441E-2,2.1439362E-1,-5.566075E-1,9.1533184E-2,-4.8609206E-1,6.5465176E-1,-6.3270934E-2,6.8852717E-1,-7.5074136E-2,-4.3144247E-1,4.7260883E-1,-5.1091045E-1,-7.207942E-2,-4.465266E-1,3.876928E-1,-2.858052E-1,-6.0598534E-1,5.0592136E-2,7.237887E-1,1.0241033E-1,1.2883621E-2,-1.4334048E-1,2.982722E-1,1.7547284E-3,-5.668163E-2,6.4983964E-1,-4.6629008E-2,-5.514325E-1,-3.471589E-2,8.967532E-4,-5.8112483E-2,8.352976E-2,-1.0049161E-2,-5.2183848E-2,4.1297853E-2,-1.4500943E-3,-6.702745E-2,5.2150805E-2,-3.474446E-2,7.513312E-2,-5.6773998E-2,-1.8860986E-2,7.0166126E-2,6.0412895E-2,-4.1825645E-2,2.3811877E-2,9.006827E-2,-2.1161174E-2,-5.7561703E-2,3.1560678E-2,-3.0046707E-2],"categories":[],"categories_nodes":[],"categories_segments":[],"categories_sizes":[],"default_left":[0,0,0,0,0,0,0,0,0,0,0,0,0,0,0,0,0,0,0,0,0,0,0,0,0,0,0,0,0,0,0,0,0,0,0,0,0,0,0,0,0,0,0,0,0,0,0,0,0,0,0,0,0,0,0,0,0,0,0,0,0],"id":3,"left_children":[1,3,5,7,-1,9,11,13,15,17,-1,19,21,23,25,27,-1,29,31,33,35,37,-1,39,41,43,45,47,49,-1,-1,51,53,-1,-1,55,-1,57,59,-1,-1,-1,-1,-1,-1,-1,-1,-1,-1,-1,-1,-1,-1,-1,-1,-1,-1,-1,-1,-1,-1],"loss_changes":[1.2982448E2,6.1232197E1,1.5298523E1,2.3392456E1,0E0,1.0188175E1,1.042157E1,2.9875026E0,1.2689644E1,2.9906018E0,0E0,3.2622936E0,7.6246643E0,2.5903606E0,3.816743E-1,7.8580856E0,0E0,8.830786E-1,2.6313396E0,3.6010265E-1,2.5625238E0,1.6128235E1,0E0,3.6386967E-1,2.3388314E0,1.9547869E0,5.059805E-1,4.021713E0,6.4577026E0,0E0,0E0,3.4427304E0,3.7646246E0,0E0,0E0,1.0083599E0,0E0,6.2155304E0,6.3037143E0,0E0,0E0,0E0,0E0,0E0,0E0,0E0,0E0,0E0,0E0,0E0,0E0,0E0,0E0,0E0,0E0,0E0,0E0,0E0,0E0,0E0,0E0],"parents":[2147483647,0,0,1,1,2,2,3,3,5,5,6,6,7,7,8,8,9,9,11,11,12,12,13,13,14,14,15,15,17,17,18,18,19,19,20,20,21,21,23,23,24,24,25,25,26,26,27,27,28,28,31,31,32,32,35,35,37,37,38,38],"right_children":[2,4,6,8,-1,10,12,14,16,18,-1,20,22,24,26,28,-1,30,32,34,36,38,-1,40,42,44,46,48,50,-1,-1,52,54,-1,-1,56,-1,58,60,-1,-1,-1,-1,-1,-1,-1,-1,-1,-1,-1,-1,-1,-1,-1,-1,-1,-1,-1,-1,-1,-1],"split_conditions":[1.33E1,1E0,1.59E1,5.35E0,-7.090824E-2,1E0,1.02E0,5.569E3,1E0,1.1466E0,-6.982441E-2,2.41E0,1E0,1.59E0,1.087E1,1.2391E1,-6.3270934E-2,2.164E2,6.163E3,1.78E1,2.851E2,3.0814E3,-7.207942E-2,3.67E0,6.222E0,1.0068E1,9.65E1,1.406E0,1E0,1.0241033E-1,1.2883621E-2,3.61E0,6.392E3,1.7547284E-3,-5.668163E-2,2.3402E3,-4.6629008E-2,3.94E0,2.251E2,8.967532E-4,-5.8112483E-2,8.352976E-2,-1.0049161E-2,-5.2183848E-2,4.1297853E-2,-1.4500943E-3,-6.702745E-2,5.2150805E-2,-3.474446E-2,7.513312E-2,-5.6773998E-2,-1.8860986E-2,7.0166126E-2,6.0412895E-2,-4.1825645E-2,2.3811877E-2,9.006827E-2,-2.1161174E-2,-5.7561703E-2,3.1560678E-2,-3.0046707E-2],"split_indices":[7,14,7,6,0,14,6,8,15,2,0,4,13,4,2,11,0,3,8,7,7,3,0,2,2,2,3,10,13,0,0,4,8,0,0,3,0,9,7,0,0,0,0,0,0,0,0,0,0,0,0,0,0,0,0,0,0,0,0,0,0],"split_type":[0,0,0,0,0,0,0,0,0,0,0,0,0,0,0,0,0,0,0,0,0,0,0,0,0,0,0,0,0,0,0,0,0,0,0,0,0,0,0,0,0,0,0,0,0,0,0,0,0,0,0,0,0,0,0,0,0,0,0,0,0],"sum_hessian":[1.5008245E3,2.8521802E2,1.2156064E3,2.3153123E2,5.368679E1,1.3394559E2,1.0816609E3,3.6276188E1,1.9525505E2,1.0496921E2,2.8976372E1,1.7339552E1,1.0643213E3,1.4169258E1,2.210693E1,1.8803676E2,7.2182913E0,4.4042487E0,1.0056496E2,4.7609124E0,1.257864E1,8.358079E2,2.2851337E2,4.8500376E0,9.319221E0,9.54516E0,1.2561769E1,1.9489119E1,1.6854764E2,2.2346473E0,2.1696017E0,8.554004E1,1.5024922E1,1.3045466E0,3.456366E0,1.0840255E1,1.7383846E0,7.7011646E2,6.569145E1,1.319179E0,3.5308585E0,4.4907393E0,4.828481E0,7.324373E0,2.220788E0,1.3516493E0,1.1210119E1,8.78519E0,1.0703929E1,1.6543785E2,3.1097887E0,8.192771E1,3.6123292E0,1.0640006E1,4.3849163E0,4.842046E0,5.9982095E0,5.1814342E1,7.183021E2,2.8255907E1,3.7435547E1],"tree_param":{"num_deleted":"0","num_feature":"16","num_nodes":"61","size_leaf_vector":"1"}},{"base_weights":[3.1581753E-1,5.0990325E-1,-6.8305725E-1,-3.026052E-1,7.4755967E-1,-6.9759166E-1,-3.4773952E-1,-5.512289E-1,-3.0286549E-2,8.51758E-1,-7.1130596E-2,1.5784478E-3,-7.0152366E-1,9.886077E-2,-6.552742E-2,-5.625239E-1,4.2722158E-2,3.9059397E-2,-6.749009E-2,9.4024026E-1,-4.5151946E-1,-4.975054E-1,-7.129272E-2,-6.013819E-1,-2.060261E-1,9.309505E-2,-6.488379E-2,9.945297E-1,-6.4727026E-1,6.841439E-2,-5.0753736E-1,3.257437E-2,-6.692178E-2,-8.600604E-3,-6.072096E-2,7.505227E-2,-4.0309563E-2,1.5803155E-2,-4.5976985E-2,6.677315E-2,1.0636728E-1,-6.352213E-4,-6.7725375E-2,-2.495095E-2,-6.8154976E-2,-4.9163274E-2,6.167103E-2],"categories":[],"categories_nodes":[],"categories_segments":[],"categories_sizes":[],"default_left":[0,0,0,0,0,0,0,0,0,0,0,0,0,0,0,0,0,0,0,0,0,0,0,0,0,0,0,0,0,0,0,0,0,0,0,0,0,0,0,0,0,0,0,0,0,0,0],"id":4,"left_children":[1,3,5,7,9,11,13,15,17,19,-1,-1,21,-1,-1,23,-1,25,-1,27,29,31,-1,33,35,37,-1,39,41,-1,43,45,-1,-1,-1,-1,-1,-1,-1,-1,-1,-1,-1,-1,-1,-1,-1],"loss_changes":[3.0229352E2,2.5215439E2,9.944382E-1,2.002143E1,1.5409216E2,6.906662E-1,5.800868E0,1.9494972E0,6.3877554E0,1.0915094E2,0E0,0E0,2.0594025E-1,0E0,0E0,2.000023E0,0E0,4.8715067E0,0E0,7.6765015E1,4.2035885E0,1.4841118E0,0E0,3.6144257E-1,3.429938E0,4.412368E0,0E0,1.8595947E1,5.6858444E-1,0E0,2.4495296E0,1.7988604E0,0E0,0E0,0E0,0E0,0E0,0E0,0E0,0E0,0E0,0E0,0E0,0E0,0E0,0E0,0E0],"parents":[2147483647,0,0,1,1,2,2,3,3,4,4,5,5,6,6,7,7,8,8,9,9,12,12,15,15,17,17,19,19,20,20,21,21,23,23,24,24,25,25,27,27,28,28,30,30,31,31],"right_children":[2,4,6,8,10,12,14,16,18,20,-1,-1,22,-1,-1,24,-1,26,-1,28,30,32,-1,34,36,38,-1,40,42,-1,44,46,-1,-1,-1,-1,-1,-1,-1,-1,-1,-1,-1,-1,-1,-1,-1],"split_conditions":[1E0,1.4E1,2.2941E3,1.14E1,1E0,4E-3,7.9127E3,1.5984E1,1E0,9.69E-1,-7.1130596E-2,1.5784478E-3,1.36E-1,9.886077E-2,-6.552742E-2,8.68E-1,4.2722158E-2,1E0,-6.749009E-2,1E0,1.48E1,1.4169E1,-7.129272E-2,1.096E1,9.06E-1,3.23E0,-6.488379E-2,1.82E1,1.0624E1,6.841439E-2,3.29E1,4.004E0,-6.692178E-2,-8.600604E-3,-6.072096E-2,7.505227E-2,-4.0309563E-2,1.5803155E-2,-4.5976985E-2,6.677315E-2,1.0636728E-1,-6.352213E-4,-6.7725375E-2,-2.495095E-2,-6.8154976E-2,-4.9163274E-2,6.167103E-2],"split_indices":[13,7,7,7,15,1,3,11,12,1,0,0,1,0,0,1,0,15,0,12,7,11,0,11,1,4,0,7,11,0,7,9,0,0,0,0,0,0,0,0,0,0,0,0,0,0,0],"split_type":[0,0,0,0,0,0,0,0,0,0,0,0,0,0,0,0,0,0,0,0,0,0,0,0,0,0,0,0,0,0,0,0,0,0,0,0,0,0,0,0,0,0,0,0,0,0,0],"sum_hessian":[1.5564839E3,1.3036655E3,2.5281834E2,2.949628E2,1.00870276E3,2.4127966E2,1.1538677E1,1.5365417E2,1.4130864E2,9.4184814E2,6.68546E1,1.30607E0,2.3997359E2,1.7443286E0,9.794349E0,1.523209E2,1.3332703E0,1.2843169E2,1.2876944E1,8.822302E2,5.9617928E1,1.5065623E1,2.2490797E2,1.3673047E2,1.559043E1,1.19879585E2,8.552104E0,8.5341864E2,2.8811573E1,2.2753952E0,5.7342533E1,3.884472E0,1.1181151E1,1.7050225E0,1.3502545E2,2.1835172E0,1.3406913E1,1.0791826E2,1.19613285E1,1.5089311E2,7.025256E2,1.3417872E0,2.7469786E1,2.407607E1,3.326646E1,2.130715E0,1.7537572E0],"tree_param":{"num_deleted":"0","num_feature":"16","num_nodes":"47","size_leaf_vector":"1"}},{"base_weights":[3.1022364E-2,-2.9926655E-1,1.2953109E-1,-5.128123E-1,1.2681904E0,-6.820256E-1,1.30538E0,7.337509E-1,1.2860533E0,-6.9845074E-1,-4.6202764E-1,3.773805E-2,1.3154857E0,1.08673476E-1,-1.649998E-2,1.2926355E-1,5.2176654E-2,-2.0508307E-1,-7.02522E-1,-5.519037E-1,2.886085E-1,5.3659905E-2,1.325777E-1,-3.756536E-2,4.385422E-2,-7.0358336E-2,1.8241368E-3,-5.7888843E-2,3.9342795E-2,5.6994863E-2,-4.7642305E-2],"categories":[],"categories_nodes":[],"categories_segments":[],"categories_sizes":[],"default_left":[0,0,0,0,0,0,0,0,0,0,0,0,0,0,0,0,0,0,0,0,0,0,0,0,0,0,0,0,0,0,0],"id":5,"left_children":[1,3,-1,5,7,9,11,13,15,17,19,-1,21,-1,-1,-1,-1,23,25,27,29,-1,-1,-1,-1,-1,-1,-1,-1,-1,-1],"loss_changes":[6.415327E2,4.083994E2,0E0,3.3095575E2,4.534912E-1,3.2261963E0,3.6338806E-1,2.419635E0,3.126526E-2,1.6876831E0,4.9618235E0,0E0,1.2374878E-2,0E0,0E0,0E0,0E0,1.1391788E0,7.0443726E-1,1.8582611E0,2.051222E0,0E0,0E0,0E0,0E0,0E0,0E0,0E0,0E0,0E0,0E0],"parents":[2147483647,0,0,1,1,3,3,4,4,5,5,6,6,7,7,8,8,9,9,10,10,12,12,17,17,18,18,19,19,20,20],"right_children":[2,4,-1,6,8,10,12,14,16,18,20,-1,22,-1,-1,-1,-1,24,26,28,30,-1,-1,-1,-1,-1,-1,-1,-1,-1,-1],"split_conditions":[1E0,1E0,1.2953109E-1,1E0,7.7E-2,1.525E3,4.92E-1,1.0222E3,8.523E3,7E0,9.78E-1,3.773805E-2,1.0266E1,1.08673476E-1,-1.649998E-2,1.2926355E-1,5.2176654E-2,3.633E2,1.31E0,1.5903E1,1.236E0,5.3659905E-2,1.325777E-1,-3.756536E-2,4.385422E-2,-7.0358336E-2,1.8241368E-3,-5.7888843E-2,3.9342795E-2,5.6994863E-2,-4.7642305E-2],"split_indices":[14,13,0,12,1,5,10,7,8,7,1,0,11,0,0,0,0,3,1,11,1,0,0,0,0,0,0,0,0,0,0],"split_type":[0,0,0,0,0,0,0,0,0,0,0,0,0,0,0,0,0,0,0,0,0,0,0,0,0,0,0,0,0,0,0],"sum_hessian":[1.5343809E3,1.2171658E3,3.1721503E2,1.0718174E3,1.4534843E2,9.811315E2,9.0685844E1,6.0618205E0,1.3928662E2,9.1094507E2,7.018645E1,1.3899643E0,8.929588E1,4.202234E0,1.8595867E0,1.3741191E2,1.8747101E0,7.8760037E0,9.0306903E2,6.291784E1,7.2686043E0,1.857459E0,8.743842E1,6.5551386E0,1.3208649E0,9.01765E2,1.3040547E0,6.1548557E1,1.3692806E0,5.500717E0,1.7678872E0],"tree_param":{"num_deleted":"0","num_feature":"16","num_nodes":"31","size_leaf_vector":"1"}},{"base_weights":[-3.3446345E-1,1.898083E-1,-4.9079564E-1,3.9160082E-1,-6.851714E-2,-5.2495843E-1,-2.0251262E-1,6.1845094E-1,-7.077748E-2,-3.6423603E-1,-5.7053185E-1,-9.730338E-2,-6.7145035E-2,8.135231E-1,2.6961613E-1,-2.751355E-1,-6.810397E-2,-5.3933734E-1,-6.93189E-2,-2.6831052E-1,2.6201808E-1,8.360126E-1,-4.8561126E-2,5.7642305E-1,1.5218948E-1,-3.401933E-1,1.2627192E-1,-5.9809804E-1,-4.198354E-1,3.426523E-1,-4.548157E-1,6.5306135E-2,7.737075E-1,8.4972106E-2,-1.4731333E-2,-1.158484E-2,6.9651924E-2,2.4502082E-2,-3.2004345E-2,-3.7295695E-2,8.997633E-3,3.568467E-2,-3.9534323E-2,-1.4728232E-2,-6.0952645E-2,-1.8742993E-2,-5.302648E-2,6.5068506E-2,-5.5929568E-2,-5.373704E-2,6.55347E-2,7.711562E-2,-1.4292711E-2,9.860756E-2,-8.509199E-3],"categories":[],"categories_nodes":[],"categories_segments":[],"categories_sizes":[],"default_left":[0,0,0,0,0,0,0,0,0,0,0,0,0,0,0,0,0,0,0,0,0,0,0,0,0,0,0,0,0,0,0,0,0,0,0,0,0,0,0,0,0,0,0,0,0,0,0,0,0,0,0,0,0,0,0],"id":6,"left_children":[1,3,5,7,-1,9,11,13,-1,15,17,19,-1,21,23,25,-1,27,-1,29,31,33,-1,35,37,39,41,43,45,47,49,51,53,-1,-1,-1,-1,-1,-1,-1,-1,-1,-1,-1,-1,-1,-1,-1,-1,-1,-1,-1,-1,-1,-1],"loss_changes":[1.1971977E2,5.9589954E1,1.0969208E1,6.8684235E1,0E0,7.1520996E0,5.8933764E0,1.525312E1,0E0,6.156473E0,2.6147003E0,6.20356E0,0E0,4.65213E0,2.904128E0,4.667495E0,0E0,4.153137E0,0E0,7.9182944E0,3.240062E0,2.0558395E0,0E0,1.9619322E0,2.7707913E0,2.185112E0,3.1992645E0,2.0643463E0,5.292736E0,4.948763E0,5.174794E0,3.7415237E0,1.7227459E0,0E0,0E0,0E0,0E0,0E0,0E0,0E0,0E0,0E0,0E0,0E0,0E0,0E0,0E0,0E0,0E0,0E0,0E0,0E0,0E0,0E0,0E0],"parents":[2147483647,0,0,1,1,2,2,3,3,5,5,6,6,7,7,9,9,10,10,11,11,13,13,14,14,15,15,17,17,19,19,20,20,21,21,23,23,24,24,25,25,26,26,27,27,28,28,29,29,30,30,31,31,32,32],"right_children":[2,4,6,8,-1,10,12,14,-1,16,18,20,-1,22,24,26,-1,28,-1,30,32,34,-1,36,38,40,42,44,46,48,50,52,54,-1,-1,-1,-1,-1,-1,-1,-1,-1,-1,-1,-1,-1,-1,-1,-1,-1,-1,-1,-1,-1,-1],"split_conditions":[1.43E1,1E0,6.2596542E1,1E0,-6.851714E-2,2.03E1,2.656E1,1.22E1,-7.077748E-2,1E0,1E0,5.71E0,-6.7145035E-2,1E0,1.3598E1,4.568E0,-6.810397E-2,3.55E0,-6.93189E-2,1.78E1,4.494E0,1.5984E1,-4.8561126E-2,1.166E1,8.8E-1,9.69E-1,1.5773E1,3.94E0,1.105E2,1E0,3.727689E2,3.873E0,2.851E2,8.4972106E-2,-1.4731333E-2,-1.158484E-2,6.9651924E-2,2.4502082E-2,-3.2004345E-2,-3.7295695E-2,8.997633E-3,3.568467E-2,-3.9534323E-2,-1.4728232E-2,-6.0952645E-2,-1.8742993E-2,-5.302648E-2,6.5068506E-2,-5.5929568E-2,-5.373704E-2,6.55347E-2,7.711562E-2,-1.4292711E-2,9.860756E-2,-8.509199E-3],"split_indices":[7,14,0,12,0,7,4,7,0,14,14,4,0,15,11,9,0,4,0,7,9,11,0,11,1,1,11,9,7,12,0,9,7,0,0,0,0,0,0,0,0,0,0,0,0,0,0,0,0,0,0,0,0,0,0],"split_type":[0,0,0,0,0,0,0,0,0,0,0,0,0,0,0,0,0,0,0,0,0,0,0,0,0,0,0,0,0,0,0,0,0,0,0,0,0,0,0,0,0,0,0,0,0,0,0,0,0,0,0,0,0,0,0],"sum_hessian":[1.4585634E3,3.3497742E2,1.1235859E3,2.7264987E2,6.232753E1,1.00380927E3,1.1977673E2,2.263759E2,4.6273968E1,2.2374104E2,7.8006824E2,9.8814545E1,2.096219E1,1.4433186E2,8.2044044E1,1.760857E2,4.7655357E1,6.2620654E2,1.5386165E2,6.712291E1,3.1691635E1,1.4222624E2,2.105613E0,2.1627617E1,6.041643E1,1.5165828E2,2.4427408E1,4.1710535E2,2.0910121E2,1.5502343E1,5.1620564E1,2.370587E1,7.9857664E0,1.4040475E2,1.8214928E0,3.2025437E0,1.8425074E1,5.0893044E1,9.523386E0,1.410484E2,1.0609869E1,1.7158531E1,7.268877E0,1.0655778E1,4.064496E2,6.82217E1,1.408795E2,1.1763469E1,3.7388747E0,4.8527855E1,3.0927088E0,4.784495E0,1.8921375E1,6.2836995E0,1.7020668E0],"tree_param":{"num_deleted":"0","num_feature":"16","num_nodes":"55","size_leaf_vector":"1"}},{"base_weights":[2.75871E-1,4.802715E-1,-7.0021406E-2,6.081372E-1,-5.59242E-1,6.9619936E-1,-6.5726256E-1,-1.8708174E-1,-6.328891E-1,4.410142E-1,8.242454E-1,-6.6939896E-1,2.7912147E-3,2.637163E-1,-5.438645E-1,-4.2856273E-1,-6.7529315E-1,5.3396845E-1,-3.892819E-2,8.546916E-1,-1.9697085E-1,-1.08205555E-2,-6.8139516E-2,8.6112285E-1,-2.1441525E-1,2.8939412E-3,-6.019806E-1,-6.561801E-2,-1.06946066E-1,-6.841808E-2,-2.959356E-1,-5.269287E-3,6.379718E-2,-3.312398E-2,1.6928075E-2,8.8387266E-2,-1.6281027E-2,4.7553606E-2,-4.3366104E-2,1.0926216E-1,4.923866E-3,4.3177877E-2,-4.2889867E-2,-2.2791278E-2,-6.592811E-2,-3.7141543E-2,4.257474E-2,2.664441E-3,-4.581977E-2],"categories":[],"categories_nodes":[],"categories_segments":[],"categories_sizes":[],"default_left":[0,0,0,0,0,0,0,0,0,0,0,0,0,0,0,0,0,0,0,0,0,0,0,0,0,0,0,0,0,0,0,0,0,0,0,0,0,0,0,0,0,0,0,0,0,0,0,0,0],"id":7,"left_children":[1,3,-1,5,7,9,11,13,15,17,19,21,-1,23,25,27,29,31,33,35,37,-1,-1,39,41,-1,43,-1,45,-1,47,-1,-1,-1,-1,-1,-1,-1,-1,-1,-1,-1,-1,-1,-1,-1,-1,-1,-1],"loss_changes":[3.1420947E2,1.7331924E2,0E0,1.2964624E2,3.8028145E0,3.5069153E1,6.5021515E-1,4.173038E0,7.41745E-1,1.6280685E1,2.2583282E1,4.2892075E-1,0E0,3.5386426E0,4.9385214E-1,1.6275206E0,1.2397385E-1,1.8667503E1,3.7119305E0,2.0935028E1,3.6577382E0,0E0,0E0,9.6476316E-1,1.2001125E0,0E0,1.292324E-1,0E0,1.6804366E0,0E0,2.2046041E-1,0E0,0E0,0E0,0E0,0E0,0E0,0E0,0E0,0E0,0E0,0E0,0E0,0E0,0E0,0E0,0E0,0E0,0E0],"parents":[2147483647,0,0,1,1,3,3,4,4,5,5,6,6,7,7,8,8,9,9,10,10,11,11,13,13,14,14,15,15,16,16,17,17,18,18,19,19,20,20,23,23,24,24,26,26,28,28,30,30],"right_children":[2,4,-1,6,8,10,12,14,16,18,20,22,-1,24,26,28,30,32,34,36,38,-1,-1,40,42,-1,44,-1,46,-1,48,-1,-1,-1,-1,-1,-1,-1,-1,-1,-1,-1,-1,-1,-1,-1,-1,-1,-1],"split_conditions":[1E0,1.357E1,-7.0021406E-2,1E0,1.9E1,2.396E2,1.5984E1,7.919369E0,1.0049E3,1.4991E1,9.66E-1,1.0266E1,2.7912147E-3,3.66E-1,5.073E2,1.4811E1,3.913E0,5.43E1,8.7E-1,2.3599864E2,3.668E2,-1.08205555E-2,-6.8139516E-2,4.498765E0,1.252E1,2.8939412E-3,1.416E1,-6.561801E-2,1.252E0,-6.841808E-2,8.99E-1,-5.269287E-3,6.379718E-2,-3.312398E-2,1.6928075E-2,8.8387266E-2,-1.6281027E-2,4.7553606E-2,-4.3366104E-2,1.0926216E-1,4.923866E-3,4.3177877E-2,-4.2889867E-2,-2.2791278E-2,-6.592811E-2,-3.7141543E-2,4.257474E-2,2.664441E-3,-4.581977E-2],"split_indices":[14,4,0,12,4,3,11,0,3,11,1,11,0,1,3,11,10,3,10,0,3,0,0,0,11,0,4,0,1,0,1,0,0,0,0,0,0,0,0,0,0,0,0,0,0,0,0,0,0],"split_type":[0,0,0,0,0,0,0,0,0,0,0,0,0,0,0,0,0,0,0,0,0,0,0,0,0,0,0,0,0,0,0,0,0,0,0,0,0,0,0,0,0,0,0,0,0,0,0,0,0],"sum_hessian":[1.5722023E3,1.3003962E3,2.7180603E2,1.1583304E3,1.4206581E2,1.0833849E3,7.49455E1,2.4054016E1,1.180118E2,3.634679E2,7.1991705E2,7.3663734E1,1.2817672E0,1.0742113E1,1.3311903E1,2.2190817E1,9.5820984E1,3.0439978E2,5.9068096E1,6.992334E2,2.0683678E1,1.7514083E0,7.191232E1,4.419325E0,6.3227887E0,1.2724476E0,1.2039455E1,1.23852E1,9.805618E0,9.284234E1,2.9786398E0,4.5912148E1,2.5848764E2,2.432562E1,3.4742474E1,6.7986676E2,1.9366594E1,5.1218576E0,1.5561821E1,3.1697304E0,1.2495943E0,1.3231878E0,4.999601E0,2.2604337E0,9.779021E0,6.754789E0,3.050829E0,1.2765766E0,1.7020633E0],"tree_param":{"num_deleted":"0","num_feature":"16","num_nodes":"49","size_leaf_vector":"1"}},{"base_weights":[4.548219E-2,-2.666102E-1,1.1630092E-1,-4.775229E-1,1.115626E0,-5.285191E-1,2.4319151E-1,6.7586297E-1,1.1410928E0,-5.816155E-1,2.0547183E-1,6.9944024E-1,-2.4813248E-1,8.0842465E-2,1.0395988E-1,1.1467012E-1,3.344394E-2,1.7508462E-2,-6.2364846E-1,-3.1639946E-1,5.160071E-1,9.3193525E-1,6.05084E-2,-6.289717E-1,3.136705E-1,-3.4674954E-1,7.1741134E-2,7.04397E-2,-2.903395E-2,-6.288924E-2,8.364305E-2,-4.5945846E-2,3.3093918E-2,1.0906352E-1,1.8871697E-2,4.3504454E-2,9.9348605E-2,-1.9970939E-2,8.209961E-2,-6.71367E-2,-6.596748E-4,-2.5032038E-2,8.441492E-2,-6.242171E-3,-4.8640896E-2],"categories":[],"categories_nodes":[],"categories_segments":[],"categories_sizes":[],"default_left":[0,0,0,0,0,0,0,0,0,0,0,0,0,0,0,0,0,0,0,0,0,0,0,0,0,0,0,0,0,0,0,0,0,0,0,0,0,0,0,0,0,0,0,0,0],"id":8,"left_children":[1,3,-1,5,7,9,11,13,15,17,19,21,23,25,-1,-1,-1,27,29,31,33,35,37,39,41,43,-1,-1,-1,-1,-1,-1,-1,-1,-1,-1,-1,-1,-1,-1,-1,-1,-1,-1,-1],"loss_changes":[5.312986E2,3.477196E2,0E0,3.812993E1,9.9783325E-1,3.776425E1,1.564328E1,2.3182435E0,2.8544617E-1,2.2701721E1,1.0843057E1,5.2979183E0,7.464534E0,1.6901032E0,0E0,0E0,0E0,1.2901013E1,6.972809E0,2.4861848E0,7.635935E0,3.7392998E-1,2.2786298E0,5.3848743E-1,4.5165596E0,1.2218991E-1,0E0,0E0,0E0,0E0,0E0,0E0,0E0,0E0,0E0,0E0,0E0,0E0,0E0,0E0,0E0,0E0,0E0,0E0,0E0],"parents":[2147483647,0,0,1,1,3,3,4,4,5,5,6,6,7,7,8,8,9,9,10,10,11,11,12,12,13,13,17,17,18,18,19,19,20,20,21,21,22,22,23,23,24,24,25,25],"right_children":[2,4,-1,6,8,10,12,14,16,18,20,22,24,26,-1,-1,-1,28,30,32,34,36,38,40,42,44,-1,-1,-1,-1,-1,-1,-1,-1,-1,-1,-1,-1,-1,-1,-1,-1,-1,-1,-1],"split_conditions":[1E0,1E0,1.1630092E-1,1.087E1,1.36E-1,1.703E3,1.72E1,1.4169E1,8.523E3,9.7E0,1.9743E0,4E2,1.6942E1,8.872E0,1.0395988E-1,1.1467012E-1,3.344394E-2,5.37E2,6.562E4,2.485E0,1.207E0,1.32E0,2.86E0,1.551E1,5.57E2,7.32E3,7.1741134E-2,7.04397E-2,-2.903395E-2,-6.288924E-2,8.364305E-2,-4.5945846E-2,3.3093918E-2,1.0906352E-1,1.8871697E-2,4.3504454E-2,9.9348605E-2,-1.9970939E-2,8.209961E-2,-6.71367E-2,-6.596748E-4,-2.5032038E-2,8.441492E-2,-6.242171E-3,-4.8640896E-2],"split_indices":[14,13,0,2,1,5,7,11,8,7,2,5,2,2,0,0,0,5,3,10,10,4,4,11,5,3,0,0,0,0,0,0,0,0,0,0,0,0,0,0,0,0,0,0,0],"split_type":[0,0,0,0,0,0,0,0,0,0,0,0,0,0,0,0,0,0,0,0,0,0,0,0,0,0,0,0,0,0,0,0,0,0,0,0,0,0,0,0,0,0,0,0,0],"sum_hessian":[1.521453E3,1.1899081E3,3.3154486E2,1.0329473E3,1.5696088E2,9.649371E2,6.8010155E1,1.0099588E1,1.468613E2,9.000366E2,6.490045E1,3.5044174E1,3.2965977E1,4.295315E0,5.804273E0,1.4542862E2,1.4326689E0,5.9042873E1,8.409938E2,2.420454E1,4.0695915E1,2.5358221E1,9.685953E0,1.9576056E1,1.3389922E1,2.8417537E0,1.4535612E0,1.7873758E1,4.1169117E1,8.3855133E2,2.4424353E0,2.0061314E1,4.1432266E0,1.3921471E1,2.6774443E1,3.6842053E0,2.1674015E1,7.766027E0,1.9199258E0,1.8253906E1,1.322149E0,6.745941E0,6.643981E0,1.4126811E0,1.4290725E0],"tree_param":{"num_deleted":"0","num_feature":"16","num_nodes":"45","size_leaf_vector":"1"}},{"base_weights":[-3.3278027E-1,1.6325909E-1,-4.8216096E-1,2.4662289E-1,-6.63148E-2,-4.335237E-1,-6.764734E-2,-2.979689E-1,3.3416086E-1,-4.8295754E-1,-2.0544553E-2,-3.929908E-1,2.6960373E-1,3.6925915E-1,-6.269987E-2,-2.842553E-1,-5.369071E-1,-3.0881876E-1,4.276817E-1,2.0355335E-1,-4.7195414E-1,9.456504E-2,-3.165392E-1,4.3736687E-1,1.5384741E-2,-3.3970603E-1,1.389163E-1,-5.6067246E-1,-2.7662182E-2,4.2821425E-1,-4.349937E-1,7.4254155E-1,-1.151596E-1,-2.4594968E-2,7.862733E-2,-5.32071E-2,-1.2683383E-2,2.0510436E-3,-4.6619073E-2,1.1925272E-2,5.0283115E-2,6.880713E-2,-4.108473E-3,2.9670397E-2,-3.7114266E-2,6.913101E-2,-1.26947835E-2,-5.6521755E-2,6.0280632E-2,-2.8008673E-2,5.0166305E-2,-6.5706135E-3,9.1576E-2,-5.299872E-2,-1.2594211E-2,8.480571E-2,-4.3360606E-2,1.1580968E-2,-5.6777842E-2],"categories":[],"categories_nodes":[],"categories_segments":[],"categories_sizes":[],"default_left":[0,0,0,0,0,0,0,0,0,0,0,0,0,0,0,0,0,0,0,0,0,0,0,0,0,0,0,0,0,0,0,0,0,0,0,0,0,0,0,0,0,0,0,0,0,0,0,0,0,0,0,0,0,0,0,0,0,0,0],"id":9,"left_children":[1,3,5,7,-1,9,-1,11,13,15,17,19,21,23,-1,25,27,29,31,33,35,-1,37,39,41,43,45,47,49,51,53,55,57,-1,-1,-1,-1,-1,-1,-1,-1,-1,-1,-1,-1,-1,-1,-1,-1,-1,-1,-1,-1,-1,-1,-1,-1,-1,-1],"loss_changes":[1.0540416E2,2.2879515E1,1.0033524E1,1.441304E1,0E0,1.7888504E1,0E0,2.3768592E0,8.973587E0,8.24057E0,1.2377466E1,1.8142452E0,2.927183E0,6.034069E0,0E0,4.0201178E0,7.423126E0,5.603842E0,6.497225E0,1.49322E0,6.07079E-1,0E0,2.2651464E-1,4.3164215E0,1.6042992E0,3.1108322E0,3.072774E0,3.445816E0,3.9427836E0,2.2320912E0,1.4081116E0,3.3308363E0,1.595893E0,0E0,0E0,0E0,0E0,0E0,0E0,0E0,0E0,0E0,0E0,0E0,0E0,0E0,0E0,0E0,0E0,0E0,0E0,0E0,0E0,0E0,0E0,0E0,0E0,0E0,0E0],"parents":[2147483647,0,0,1,1,2,2,3,3,5,5,7,7,8,8,9,9,10,10,11,11,12,12,13,13,15,15,16,16,17,17,18,18,19,19,20,20,22,22,23,23,24,24,25,25,26,26,27,27,28,28,29,29,30,30,31,31,32,32],"right_children":[2,4,6,8,-1,10,-1,12,14,16,18,20,22,24,-1,26,28,30,32,34,36,-1,38,40,42,44,46,48,50,52,54,56,58,-1,-1,-1,-1,-1,-1,-1,-1,-1,-1,-1,-1,-1,-1,-1,-1,-1,-1,-1,-1,-1,-1,-1,-1,-1,-1],"split_conditions":[1.43E1,1E0,1E0,3.65E2,-6.63148E-2,2.1115E3,-6.764734E-2,3.06E0,1E0,1.88E1,7.56E-1,2.14E2,3.4941046E2,1.33E1,-6.269987E-2,5.9496902E1,2.308E0,3.3E2,8.3E2,3.0277982E2,1.5556E1,9.456504E-2,1.4811E1,8.4E0,4.06E2,7.845131E-1,8.575679E1,4.109939E2,6.336E3,1.5113E1,1.118E1,1E0,1.1766E4,-2.4594968E-2,7.862733E-2,-5.32071E-2,-1.2683383E-2,2.0510436E-3,-4.6619073E-2,1.1925272E-2,5.0283115E-2,6.880713E-2,-4.108473E-3,2.9670397E-2,-3.7114266E-2,6.913101E-2,-1.26947835E-2,-5.6521755E-2,6.0280632E-2,-2.8008673E-2,5.0166305E-2,-6.5706135E-3,9.1576E-2,-5.299872E-2,-1.2594211E-2,8.480571E-2,-4.3360606E-2,1.1580968E-2,-5.6777842E-2],"split_indices":[7,15,13,5,0,3,0,4,13,7,1,5,0,7,0,0,10,5,5,0,11,0,11,7,5,0,0,0,8,11,4,15,3,0,0,0,0,0,0,0,0,0,0,0,0,0,0,0,0,0,0,0,0,0,0,0,0,0,0],"split_type":[0,0,0,0,0,0,0,0,0,0,0,0,0,0,0,0,0,0,0,0,0,0,0,0,0,0,0,0,0,0,0,0,0,0,0,0,0,0,0,0,0,0,0,0,0,0,0,0,0,0,0,0,0,0,0,0,0,0,0],"sum_hessian":[1.4204208E3,3.2873093E2,1.0916898E3,2.9924606E2,2.948487E1,8.7572345E2,2.1596634E2,4.1107006E1,2.5813907E2,7.8195374E2,9.376971E1,3.5475384E1,5.6316247E0,2.4963892E2,8.500143E0,1.6831168E2,6.13642E2,5.725652E1,3.6513187E1,3.9624503E0,3.1512932E1,2.330418E0,3.3012066E0,2.0914944E2,4.048948E1,1.4898634E2,1.932534E1,5.8618506E2,2.7457012E1,8.019273E0,4.9237247E1,2.2876461E1,1.3636727E1,2.563176E0,1.3992743E0,2.6376657E1,5.1362743E0,1.2803988E0,2.0208075E0,3.6176517E1,1.7297292E2,2.2694972E0,3.8219982E1,6.615829E0,1.4237051E2,5.7591486E0,1.3566192E1,5.8441626E2,1.768796E0,1.8910051E1,8.546961E0,4.413399E0,3.6058733E0,3.711446E1,1.2122789E1,2.1249098E1,1.6273631E0,9.521887E0,4.1148405E0],"tree_param":{"num_deleted":"0","num_feature":"16","num_nodes":"59","size_leaf_vector":"1"}},{"base_weights":[2.5760898E-1,4.4607595E-1,-6.780513E-2,5.661337E-1,-6.028965E-1,-2.0202543E-1,7.7563673E-1,-6.6392444E-2,-4.301621E-1,-4.369566E-1,1.09524675E-1,8.094458E-1,-3.246979E-1,9.356642E-2,-6.0274523E-1,-4.5911488E-1,5.0002635E-1,2.0707268E-1,-6.489878E-2,8.720038E-1,3.8498917E-1,3.861475E-2,-6.0142297E-1,-1.388008E-1,-6.55286E-2,-3.9123394E-2,-6.777599E-2,7.833054E-2,-5.28788E-4,-6.076953E-2,2.4949798E-2,8.895838E-2,-6.385756E-2,-1.6437575E-2,5.1851075E-2,4.013018E-2,-4.6770222E-2,-8.167567E-3,-6.572009E-2,2.7506292E-2,-4.6517715E-2],"categories":[],"categories_nodes":[],"categories_segments":[],"categories_sizes":[],"default_left":[0,0,0,0,0,0,0,0,0,0,0,0,0,0,0,0,0,0,0,0,0,0,0,0,0,0,0,0,0,0,0,0,0,0,0,0,0,0,0,0,0],"id":10,"left_children":[1,3,-1,5,7,9,11,-1,13,15,17,19,21,-1,23,25,27,29,-1,31,33,35,37,39,-1,-1,-1,-1,-1,-1,-1,-1,-1,-1,-1,-1,-1,-1,-1,-1,-1],"loss_changes":[2.7118976E2,1.6144191E2,0E0,1.8496341E2,1.104393E0,1.8117277E1,3.3836304E1,0E0,9.347789E0,3.155838E0,8.046307E0,2.2921265E1,2.7997625E0,0E0,7.3031616E-1,1.7861156E0,5.387581E-1,3.4528742E0,0E0,2.0818787E1,8.469154E0,2.5529091E0,4.025402E-1,7.622837E-1,0E0,0E0,0E0,0E0,0E0,0E0,0E0,0E0,0E0,0E0,0E0,0E0,0E0,0E0,0E0,0E0,0E0],"parents":[2147483647,0,0,1,1,3,3,4,4,5,5,6,6,8,8,9,9,10,10,11,11,12,12,14,14,15,15,16,16,17,17,19,19,20,20,21,21,22,22,23,23],"right_children":[2,4,-1,6,8,10,12,-1,14,16,18,20,22,-1,24,26,28,30,-1,32,34,36,38,40,-1,-1,-1,-1,-1,-1,-1,-1,-1,-1,-1,-1,-1,-1,-1,-1,-1],"split_conditions":[1E0,1E0,-6.780513E-2,1.43E1,1.0222E3,1.18E1,1.964E3,-6.6392444E-2,1.1766E4,4.724E0,2.0747134E2,7.474E0,2.151E0,9.356642E-2,1.2194E3,6.536E0,3.8E2,1.0852E0,-6.489878E-2,1E0,1.98E1,2.045E2,2.068E3,3.974893E1,-6.55286E-2,-3.9123394E-2,-6.777599E-2,7.833054E-2,-5.28788E-4,-6.076953E-2,2.4949798E-2,8.895838E-2,-6.385756E-2,-1.6437575E-2,5.1851075E-2,4.013018E-2,-4.6770222E-2,-8.167567E-3,-6.572009E-2,2.7506292E-2,-4.6517715E-2],"split_indices":[14,13,0,7,7,7,5,0,3,9,0,2,2,0,7,2,5,2,0,15,7,3,5,0,0,0,0,0,0,0,0,0,0,0,0,0,0,0,0,0,0],"split_type":[0,0,0,0,0,0,0,0,0,0,0,0,0,0,0,0,0,0,0,0,0,0,0,0,0,0,0,0,0,0,0,0,0,0,0,0,0,0,0,0,0],"sum_hessian":[1.5351558E3,1.2782129E3,2.5694296E2,1.1473552E3,1.308576E2,2.4587418E2,9.014811E2,9.4593605E1,3.6264004E1,1.399439E2,1.0593028E2,8.748642E2,2.6616882E1,3.5721798E0,3.2691822E1,1.372091E2,2.734789E0,9.450369E1,1.1426583E1,7.615672E2,1.1329699E2,1.1880033E1,1.473685E1,3.6961257E0,2.8995697E1,1.0683137E2,3.0377737E1,1.3998809E0,1.3349081E0,4.0178556E0,9.048584E1,7.5321246E2,8.354744E0,2.2107248E1,9.118974E1,7.0426345E0,4.8373985E0,1.6670754E0,1.3069775E1,1.6989644E0,1.9971614E0],"tree_param":{"num_deleted":"0","num_feature":"16","num_nodes":"41","size_leaf_vector":"1"}},{"base_weights":[5.349584E-2,-2.4695878E-1,1.0502299E-1,-4.2422444E-1,8.339748E-1,-5.703831E-1,1.1147289E0,5.76942E-1,1.0076828E0,-6.0708874E-1,1.188973E-1,3.397564E-2,1.1238604E0,1.1968738E-1,7.197096E-1,7.606347E-1,1.04501724E-1,-6.3663125E-1,-3.5985017E-1,3.4935962E-2,1.132946E-1,-1.9072798E-1,9.369326E-2,3.6319897E-1,8.4018755E-1,4.5719206E-1,9.513914E-2,-6.4296566E-2,8.198469E-3,-2.1544887E-2,-6.0897022E-2,-5.2766163E-2,2.571925E-2,-4.746034E-3,6.099797E-2,1.0283649E-1,6.855963E-2,7.382553E-2,-2.1212896E-2],"categories":[],"categories_nodes":[],"categories_segments":[],"categories_sizes":[],"default_left":[0,0,0,0,0,0,0,0,0,0,0,0,0,0,0,0,0,0,0,0,0,0,0,0,0,0,0,0,0,0,0,0,0,0,0,0,0,0,0],"id":11,"left_children":[1,3,-1,5,7,9,11,13,15,17,-1,-1,19,21,23,25,-1,27,29,-1,-1,31,-1,33,35,37,-1,-1,-1,-1,-1,-1,-1,-1,-1,-1,-1,-1,-1],"loss_changes":[4.442007E2,2.1876544E2,0E0,2.210531E2,6.6039658E0,5.8558014E1,2.2203064E-1,4.303299E0,7.850647E-2,6.1835327E0,0E0,0E0,1.9463348E-1,4.5416164E0,1.8871403E0,4.9730492E-1,0E0,3.6167297E0,3.3225794E0,0E0,0E0,2.1421556E0,0E0,1.5139639E0,3.825817E-1,1.68827E0,0E0,0E0,0E0,0E0,0E0,0E0,0E0,0E0,0E0,0E0,0E0,0E0,0E0],"parents":[2147483647,0,0,1,1,3,3,4,4,5,5,6,6,7,7,8,8,9,9,12,12,13,13,14,14,15,15,17,17,18,18,21,21,23,23,24,24,25,25],"right_children":[2,4,-1,6,8,10,12,14,16,18,-1,-1,20,22,24,26,-1,28,30,-1,-1,32,-1,34,36,38,-1,-1,-1,-1,-1,-1,-1,-1,-1,-1,-1,-1,-1],"split_conditions":[1E0,1.481E1,1.0502299E-1,1E0,1.057E4,1E0,1.0266E1,2.335E1,2.222E1,5.03E0,1.188973E-1,3.397564E-2,1.88E2,1E0,1.919E0,4.38E0,1.04501724E-1,2.28E3,3.7814526E1,3.4935962E-2,1.132946E-1,4.463E0,9.369326E-2,1.0049E3,5.4871144E0,1.4282282E1,9.513914E-2,-6.4296566E-2,8.198469E-3,-2.1544887E-2,-6.0897022E-2,-5.2766163E-2,2.571925E-2,-4.746034E-3,6.099797E-2,1.0283649E-1,6.855963E-2,7.382553E-2,-2.1212896E-2],"split_indices":[14,4,0,12,3,15,11,4,4,4,0,0,5,12,2,2,0,5,0,0,0,9,0,3,0,0,0,0,0,0,0,0,0,0,0,0,0,0,0],"split_type":[0,0,0,0,0,0,0,0,0,0,0,0,0,0,0,0,0,0,0,0,0,0,0,0,0,0,0,0,0,0,0,0,0,0,0,0,0,0,0],"sum_hessian":[1.481407E3,1.1388617E3,3.4254523E2,9.789313E2,1.5993047E2,8.9459814E2,8.433309E1,6.6239044E1,9.3691414E1,8.7695703E2,1.7641119E1,1.4270747E0,8.290602E1,1.6198137E1,5.004091E1,1.51059885E1,7.858543E1,7.819474E2,9.500967E1,1.4187392E0,8.148728E1,1.2294806E1,3.9033318E0,1.3653378E1,3.638753E1,7.141889E0,7.964099E0,7.7521924E2,6.7281184E0,6.1326736E1,3.3682926E1,6.9151115E0,5.379694E0,5.4281917E0,8.225186E0,1.3861894E1,2.2525639E1,4.957239E0,2.1846497E0],"tree_param":{"num_deleted":"0","num_feature":"16","num_nodes":"39","size_leaf_vector":"1"}},{"base_weights":[-3.1697547E-1,-2.5165594E-1,-6.6020705E-2,-2.0512809E-1,-6.771987E-2,-2.3332159E-1,4.677564E-1,5.889031E-3,-3.0671218E-1,2.9883817E-1,8.905509E-1,9.431023E-2,-6.439627E-2,2.2890069E-1,-3.3553505E-1,1.6313858E-1,1.0438406E-1,5.1460797E-1,1.0931503E-1,5.6154854E-3,9.485161E-2,3.3968236E-2,-5.5789687E-2,-3.869975E-2,-5.808143E-3,-4.6183025E-3,5.0676014E-2,7.535845E-2,7.977378E-3],"categories":[],"categories_nodes":[],"categories_segments":[],"categories_sizes":[],"default_left":[0,0,0,0,0,0,0,0,0,0,0,0,0,0,0,0,0,0,0,0,0,0,0,0,0,0,0,0,0],"id":12,"left_children":[1,3,-1,5,-1,7,9,11,13,15,17,19,-1,21,23,25,-1,27,-1,-1,-1,-1,-1,-1,-1,-1,-1,-1,-1],"loss_changes":[3.0894867E1,2.2938362E1,0E0,2.0068508E1,0E0,1.774121E1,2.7792997E0,1.3748449E1,1.201413E1,3.0621946E0,3.261776E-1,6.8091817E0,0E0,3.68302E0,1.0460289E1,2.05412E0,0E0,5.6083846E-1,0E0,0E0,0E0,0E0,0E0,0E0,0E0,0E0,0E0,0E0,0E0],"parents":[2147483647,0,0,1,1,3,3,5,5,6,6,7,7,8,8,9,9,10,10,11,11,13,13,14,14,15,15,17,17],"right_children":[2,4,-1,6,-1,8,10,12,14,16,18,20,-1,22,24,26,-1,28,-1,-1,-1,-1,-1,-1,-1,-1,-1,-1,-1],"split_conditions":[1E0,1E0,-6.6020705E-2,1.4728122E2,-6.771987E-2,1.27E0,3.603301E2,1E0,3.835E0,1.744E0,1.3956E1,7.3051E0,-6.439627E-2,1E0,9.18E-1,4.471E0,1.0438406E-1,2.6E-1,1.0931503E-1,5.6154854E-3,9.485161E-2,3.3968236E-2,-5.5789687E-2,-3.869975E-2,-5.808143E-3,-4.6183025E-3,5.0676014E-2,7.535845E-2,7.977378E-3],"split_indices":[13,12,0,0,0,4,0,15,9,10,11,2,0,15,1,9,0,1,0,0,0,0,0,0,0,0,0,0,0],"split_type":[0,0,0,0,0,0,0,0,0,0,0,0,0,0,0,0,0,0,0,0,0,0,0,0,0,0,0,0,0],"sum_hessian":[1.3844314E3,1.1645432E3,2.1988815E2,1.0511005E3,1.1344281E2,1.0094579E3,4.1642513E1,2.372102E2,7.722477E2,3.097425E1,1.0668261E1,2.0955258E2,2.7657616E1,3.908033E1,7.3316736E2,2.7232859E1,3.7413929E0,4.9755907E0,5.6926703E0,2.0161275E2,7.939831E0,3.4755062E1,4.325267E0,6.1812244E2,1.1504493E2,1.7461533E1,9.771325E0,2.7378702E0,2.2377203E0],"tree_param":{"num_deleted":"0","num_feature":"16","num_nodes":"29","size_leaf_vector":"1"}},{"base_weights":[2.370766E-1,4.0601617E-1,-6.5744326E-2,5.099584E-1,-5.9791726E-1,-2.8036934E-1,6.8122774E-1,-8.687756E-2,-6.325325E-1,-4.5909816E-1,-5.208541E-2,7.3051494E-1,-1.8815278E-1,5.123768E-1,-5.6988414E-2,-6.66038E-2,-4.929332E-1,5.088213E-2,-4.7370645E-1,-1.1989588E-1,5.907689E-1,7.6600784E-1,-1.4097618E-1,1.327046E-1,-5.939543E-1,-3.5512622E-2,9.101876E-2,-5.537895E-1,1.3199545E-2,3.9920073E-2,-4.875406E-2,1.7167199E-3,-3.972593E-2,1.0715486E-1,-4.846212E-3,7.8085296E-2,-6.248146E-2,-5.1001858E-2,2.0049209E-2,-4.3404233E-2,3.1638216E-2,-6.2899806E-2,-3.900755E-4,-2.326244E-3,-5.908659E-2,4.361401E-2,-3.891125E-2],"categories":[],"categories_nodes":[],"categories_segments":[],"categories_sizes":[],"default_left":[0,0,0,0,0,0,0,0,0,0,0,0,0,0,0,0,0,0,0,0,0,0,0,0,0,0,0,0,0,0,0,0,0,0,0,0,0,0,0,0,0,0,0,0,0,0,0],"id":13,"left_children":[1,3,-1,5,7,9,11,13,15,17,19,21,23,25,-1,-1,27,-1,29,31,33,35,37,39,41,-1,-1,43,45,-1,-1,-1,-1,-1,-1,-1,-1,-1,-1,-1,-1,-1,-1,-1,-1,-1,-1],"loss_changes":[2.3255194E2,1.3528621E2,0E0,1.5892764E2,2.100029E0,8.527096E0,4.1449768E1,2.8643641E0,2.0459747E-1,1.90131E0,4.1318383E0,2.8336548E1,6.917345E0,1.8737437E0,0E0,0E0,8.050704E-1,0E0,1.5977459E0,3.242049E0,2.8356504E0,1.8596375E1,4.7091055E0,3.2756793E0,4.808569E-1,0E0,0E0,4.4148874E-1,8.089164E-1,0E0,0E0,0E0,0E0,0E0,0E0,0E0,0E0,0E0,0E0,0E0,0E0,0E0,0E0,0E0,0E0,0E0,0E0],"parents":[2147483647,0,0,1,1,3,3,4,4,5,5,6,6,7,7,8,8,9,9,10,10,11,11,12,12,13,13,16,16,18,18,19,19,20,20,21,21,22,22,23,23,24,24,27,27,28,28],"right_children":[2,4,-1,6,8,10,12,14,16,18,20,22,24,26,-1,-1,28,-1,30,32,34,36,38,40,42,-1,-1,44,46,-1,-1,-1,-1,-1,-1,-1,-1,-1,-1,-1,-1,-1,-1,-1,-1,-1,-1],"split_conditions":[1E0,1E0,-6.5744326E-2,1.33E1,1.36E-1,1.13E1,9.66E-1,1.4169E1,1.642E3,1.096E1,4.648E0,1.6678766E2,4.35E1,4.004E0,-5.6988414E-2,-6.66038E-2,1.4543E3,5.088213E-2,5.24E-1,4.822E0,1.5471E1,1E0,3.58E1,3.712E1,6.2596542E1,-3.5512622E-2,9.101876E-2,1.82E1,4.184E0,3.9920073E-2,-4.875406E-2,1.7167199E-3,-3.972593E-2,1.0715486E-1,-4.846212E-3,7.8085296E-2,-6.248146E-2,-5.1001858E-2,2.0049209E-2,-4.3404233E-2,3.1638216E-2,-6.2899806E-2,-3.900755E-4,-2.326244E-3,-5.908659E-2,4.361401E-2,-3.891125E-2],"split_indices":[14,13,0,7,1,7,1,11,5,11,9,0,7,9,0,0,7,0,10,2,11,15,7,6,0,0,0,7,2,0,0,0,0,0,0,0,0,0,0,0,0,0,0,0,0,0,0],"split_type":[0,0,0,0,0,0,0,0,0,0,0,0,0,0,0,0,0,0,0,0,0,0,0,0,0,0,0,0,0,0,0,0,0,0,0,0,0,0,0,0,0,0,0,0,0,0,0],"sum_hessian":[1.5360919E3,1.29253E3,2.435619E2,1.1717091E3,1.2082087E2,2.0857881E2,9.631304E2,7.8872833E0,1.12933586E2,1.1641989E2,9.215892E1,9.116089E2,5.1521442E1,3.4929094E0,4.394374E0,8.803342E1,2.4900166E1,1.2279394E0,1.1519195E2,8.410114E1,8.057781E0,8.7605133E2,3.5557587E1,2.9147896E1,2.2373547E1,1.1318944E0,2.3610148E0,2.2143518E1,2.7566476E0,1.3625306E0,1.1382942E2,5.6914257E1,2.7186884E1,4.2128763E0,3.8449051E0,8.6723334E2,8.817979E0,1.6851593E1,1.8705994E1,6.8007503E0,2.2347145E1,2.1056955E1,1.3165904E0,1.5527394E0,2.0590778E1,1.3028792E0,1.4537685E0],"tree_param":{"num_deleted":"0","num_feature":"16","num_nodes":"47","size_leaf_vector":"1"}},{"base_weights":[2.2193344E-2,-2.627273E-1,9.67688E-2,-4.4087505E-1,7.403569E-1,-4.849192E-1,1.0742197E-1,4.1666117E-1,9.0990037E-1,-5.4180026E-1,3.9492154E-1,2.6595498E-2,5.110123E-1,-7.949951E-3,9.2338E-1,-5.6333554E-1,2.0161161E-1,6.104551E-1,-5.28684E-1,6.0254097E-2,-1.62803E-1,-9.1046505E-2,6.23031E-1,5.2541137E-1,9.627485E-2,1.8141918E-2,-5.7940215E-2,-1.735477E-2,6.1250445E-2,7.2677776E-2,1.9813593E-2,-5.9927046E-2,1.2371097E-3,-5.9899416E-2,2.9090663E-2,2.9995892E-2,-5.3874906E-2,1.8553076E-2,7.189352E-2,8.578102E-2,2.110533E-2],"categories":[],"categories_nodes":[],"categories_segments":[],"categories_sizes":[],"default_left":[0,0,0,0,0,0,0,0,0,0,0,0,0,0,0,0,0,0,0,0,0,0,0,0,0,0,0,0,0,0,0,0,0,0,0,0,0,0,0,0,0],"id":14,"left_children":[1,3,-1,5,7,9,-1,11,13,15,17,19,21,-1,23,25,27,29,31,-1,33,35,37,39,-1,-1,-1,-1,-1,-1,-1,-1,-1,-1,-1,-1,-1,-1,-1,-1,-1],"loss_changes":[3.9037796E2,1.9932562E2,0E0,6.366771E1,8.858513E0,4.6268845E1,0E0,2.183671E0,1.5353775E0,1.3958435E1,1.1561918E1,1.4816451E0,3.2952604E0,0E0,1.1897812E0,1.0164734E1,3.9727612E0,2.0737972E0,4.358549E-1,0E0,2.2189898E0,1.633009E0,1.5707111E0,1.0669794E0,0E0,0E0,0E0,0E0,0E0,0E0,0E0,0E0,0E0,0E0,0E0,0E0,0E0,0E0,0E0,0E0,0E0],"parents":[2147483647,0,0,1,1,3,3,4,4,5,5,7,7,8,8,9,9,10,10,11,11,12,12,14,14,15,15,16,16,17,17,18,18,20,20,21,21,22,22,23,23],"right_children":[2,4,-1,6,8,10,-1,12,14,16,18,20,22,-1,24,26,28,30,32,-1,34,36,38,40,-1,-1,-1,-1,-1,-1,-1,-1,-1,-1,-1,-1,-1,-1,-1,-1,-1],"split_conditions":[1E0,1.357E1,9.67688E-2,1E0,2.977E1,1.796098E2,1.0742197E-1,4.076E0,9.705E0,6.544E3,2.67E1,1.18E1,2.03E1,-7.949951E-3,3.29E1,7.4E0,1.419E3,2.88E0,8.72E-1,6.0254097E-2,1.996E1,1.224E0,1.481E1,1.187E0,9.627485E-2,1.8141918E-2,-5.7940215E-2,-1.735477E-2,6.1250445E-2,7.2677776E-2,1.9813593E-2,-5.9927046E-2,1.2371097E-3,-5.9899416E-2,2.9090663E-2,2.9995892E-2,-5.3874906E-2,1.8553076E-2,7.189352E-2,8.578102E-2,2.110533E-2],"split_indices":[14,4,0,15,4,0,0,9,11,8,7,7,7,0,7,7,5,4,1,0,4,1,4,1,0,0,0,0,0,0,0,0,0,0,0,0,0,0,0,0,0],"split_type":[0,0,0,0,0,0,0,0,0,0,0,0,0,0,0,0,0,0,0,0,0,0,0,0,0,0,0,0,0,0,0,0,0,0,0,0,0,0,0,0,0],"sum_hessian":[1.4471694E3,1.1126111E3,3.3455832E2,9.452883E2,1.6732274E2,9.192456E2,2.6042727E1,5.8703106E1,1.0861964E2,8.637866E2,5.5459003E1,1.16834345E1,4.7019672E1,1.3941257E0,1.0722551E2,8.397042E2,2.4082426E1,4.524065E1,1.0218352E1,2.3514688E0,9.331965E0,7.405437E0,3.9614235E1,1.0943692E1,9.6281815E1,1.751512E1,8.221891E2,1.2890546E1,1.119188E1,3.469103E1,1.0549622E1,8.943926E0,1.2744265E0,4.594578E0,4.7373877E0,4.1291804E0,3.2762566E0,7.6501145E0,3.196412E1,4.478941E0,6.4647512E0],"tree_param":{"num_deleted":"0","num_feature":"16","num_nodes":"41","size_leaf_vector":"1"}},{"base_weights":[-2.83736E-1,-2.0565191E-1,-6.438777E-2,-1.526918E-1,-6.4833544E-2,-1.1324387E-1,-6.657957E-2,6.7805684E-1,-1.4362226E-1,7.2839E-1,-3.7997674E-2,-1.779341E-1,4.4111258E-1,9.926757E-2,4.098015E-2,-2.0551858E-2,4.052714E-2,2.9851124E-3,6.7557275E-2],"categories":[],"categories_nodes":[],"categories_segments":[],"categories_sizes":[],"default_left":[0,0,0,0,0,0,0,0,0,0,0,0,0,0,0,0,0,0,0],"id":15,"left_children":[1,3,-1,5,-1,7,-1,9,11,13,-1,15,17,-1,-1,-1,-1,-1,-1],"loss_changes":[3.764995E1,2.58218E1,0E0,1.9938625E1,0E0,2.2198444E1,0E0,2.09626E0,1.785938E1,2.368166E0,0E0,1.3561817E1,4.7440557E0,0E0,0E0,0E0,0E0,0E0,0E0],"parents":[2147483647,0,0,1,1,3,3,5,5,7,7,8,8,9,9,11,11,12,12],"right_children":[2,4,-1,6,-1,8,-1,10,12,14,-1,16,18,-1,-1,-1,-1,-1,-1],"split_conditions":[1E0,1E0,-6.438777E-2,1E0,-6.4833544E-2,3.835E0,-6.657957E-2,1E0,9.63E-1,5.692E0,-3.7997674E-2,1.4728122E2,1.4443E1,9.926757E-2,4.098015E-2,-2.0551858E-2,4.052714E-2,2.9851124E-3,6.7557275E-2],"split_indices":[14,13,0,12,0,9,0,15,1,2,0,0,11,0,0,0,0,0,0],"split_type":[0,0,0,0,0,0,0,0,0,0,0,0,0,0,0,0,0,0,0],"sum_hessian":[1.3425479E3,1.1046207E3,2.3792722E2,9.877919E2,1.16828804E2,9.184047E2,6.938714E1,3.3166206E1,8.852385E2,3.195748E1,1.2087286E0,8.3682965E2,4.840888E1,1.631089E1,1.564659E1,7.996551E2,3.717454E1,1.798649E1,3.042239E1],"tree_param":{"num_deleted":"0","num_feature":"16","num_nodes":"19","size_leaf_vector":"1"}},{"base_weights":[2.2488803E-1,3.745759E-1,-6.390465E-2,4.7352874E-1,-5.664959E-1,-3.0395243E-1,6.4083844E-1,-1.7152326E-1,-5.964223E-1,-4.529065E-1,-1.0577449E-1,6.8277997E-1,-3.9845142E-1,4.4176707E-1,-5.842482E-2,-6.527245E-2,-4.4741905E-1,-5.1064587E-1,-1.7486744E-1,-1.683456E-1,4.7020745E-1,-7.217843E-2,7.1138275E-1,5.3165443E-2,-4.6146917E-1,6.488033E-2,-3.9629266E-3,-5.687567E-1,1.2561673E-1,-5.266261E-2,2.114781E-2,5.892169E-2,-3.462974E-2,6.025322E-3,-3.21522E-2,1.03073135E-1,-2.4254369E-2,1.27351945E-2,-6.8370245E-2,7.420593E-2,8.316348E-3,-5.1747352E-2,4.748695E-2,6.366814E-3,-5.260534E-2,-3.9256862E-3,-5.9835356E-2,9.261497E-2,-5.0079312E-2],"categories":[],"categories_nodes":[],"categories_segments":[],"categories_sizes":[],"default_left":[0,0,0,0,0,0,0,0,0,0,0,0,0,0,0,0,0,0,0,0,0,0,0,0,0,0,0,0,0,0,0,0,0,0,0,0,0,0,0,0,0,0,0,0,0,0,0,0,0],"id":16,"left_children":[1,3,-1,5,7,9,11,13,15,17,19,21,23,25,-1,-1,27,29,31,33,35,37,39,41,43,-1,-1,45,47,-1,-1,-1,-1,-1,-1,-1,-1,-1,-1,-1,-1,-1,-1,-1,-1,-1,-1,-1,-1],"loss_changes":[1.9531339E2,1.2005269E2,0E0,1.5167047E2,1.3497047E0,6.0594215E0,4.2056274E1,2.803392E0,6.625328E-1,1.802E0,3.3256922E0,1.9956024E1,1.1007605E0,4.8561502E-1,0E0,0E0,2.4621658E0,1.2310867E0,3.0568092E0,2.8903713E0,3.8818426E0,4.303496E0,1.7055634E1,1.5758176E0,1.1624846E0,0E0,0E0,4.2402935E-1,3.8875017E0,0E0,0E0,0E0,0E0,0E0,0E0,0E0,0E0,0E0,0E0,0E0,0E0,0E0,0E0,0E0,0E0,0E0,0E0,0E0,0E0],"parents":[2147483647,0,0,1,1,3,3,4,4,5,5,6,6,7,7,8,8,9,9,10,10,11,11,12,12,13,13,16,16,17,17,18,18,19,19,20,20,21,21,22,22,23,23,24,24,27,27,28,28],"right_children":[2,4,-1,6,8,10,12,14,16,18,20,22,24,26,-1,-1,28,30,32,34,36,38,40,42,44,-1,-1,46,48,-1,-1,-1,-1,-1,-1,-1,-1,-1,-1,-1,-1,-1,-1,-1,-1,-1,-1,-1,-1],"split_conditions":[1E0,1E0,-6.390465E-2,1.33E1,1.36E-1,1.13E1,1.357E1,1.4169E1,1.419E3,7.37E-1,4.648E0,9.674278E-1,3.74E-1,5.065E0,-5.842482E-2,-6.527245E-2,1.4543E3,4.724E0,1.3397E1,3.16114E0,1.5471E1,1.81E0,1.4728122E2,1.037E3,1.42246E0,6.488033E-2,-3.9629266E-3,1.82E1,1.1766E4,-5.266261E-2,2.114781E-2,5.892169E-2,-3.462974E-2,6.025322E-3,-3.21522E-2,1.03073135E-1,-2.4254369E-2,1.27351945E-2,-6.8370245E-2,7.420593E-2,8.316348E-3,-5.1747352E-2,4.748695E-2,6.366814E-3,-5.260534E-2,-3.9256862E-3,-5.9835356E-2,9.261497E-2,-5.0079312E-2],"split_indices":[14,13,0,7,1,7,4,11,5,1,9,0,1,2,0,0,7,9,11,2,11,4,0,5,2,0,0,7,3,0,0,0,0,0,0,0,0,0,0,0,0,0,0,0,0,0,0,0,0],"split_type":[0,0,0,0,0,0,0,0,0,0,0,0,0,0,0,0,0,0,0,0,0,0,0,0,0,0,0,0,0,0,0,0,0,0,0,0,0,0,0,0,0,0,0,0,0,0,0,0,0],"sum_hessian":[1.5074536E3,1.2853214E3,2.221322E2,1.1634795E3,1.2184196E2,2.0589188E2,9.575876E2,9.055659E0,1.127863E2,1.1681003E2,8.9081856E1,9.2077203E2,3.681558E1,3.614424E0,5.441235E0,7.94027E1,3.33836E1,9.603102E1,2.0779003E1,8.0991196E1,8.090658E0,3.3555874E1,8.872161E2,4.527265E0,3.2288315E1,2.284267E0,1.3301572E0,2.7556171E1,5.8274245E0,9.421677E1,1.8142507E0,3.3610992E0,1.7417904E1,3.2738796E1,4.8252403E1,4.2792373E0,3.8114212E0,2.589764E1,7.6582327E0,8.4573676E2,4.1479374E1,1.8273889E0,2.6998763E0,3.5376554E0,2.875066E1,1.5818911E0,2.5974281E1,2.348108E0,3.4793165E0],"tree_param":{"num_deleted":"0","num_feature":"16","num_nodes":"49","size_leaf_vector":"1"}},{"base_weights":[3.4704313E-2,-2.3448627E-1,9.023019E-2,-4.3450227E-1,9.0531796E-1,-4.7508663E-1,1.0004957E-1,2.565178E-2,9.095388E-1,-5.4008114E-1,3.653587E-1,9.5170096E-2,7.8738606E-1,-5.702346E-1,2.881785E-1,7.1260023E-1,-1.6291715E-1,4.846047E-1,9.056275E-2,-5.831768E-2,5.6916054E-2,-2.954027E-2,6.831649E-2,-6.010292E-5,7.630121E-2,-5.565835E-2,2.3266986E-2,8.223412E-2,1.02982875E-2],"categories":[],"categories_nodes":[],"categories_segments":[],"categories_sizes":[],"default_left":[0,0,0,0,0,0,0,0,0,0,0,0,0,0,0,0,0,0,0,0,0,0,0,0,0,0,0,0,0],"id":17,"left_children":[1,3,-1,5,7,9,-1,-1,11,13,15,-1,17,19,21,23,25,27,-1,-1,-1,-1,-1,-1,-1,-1,-1,-1,-1],"loss_changes":[3.2653235E2,2.4368294E2,0E0,5.338626E1,2.0385742E-1,4.849681E1,0E0,0E0,6.5460205E-2,2.0672302E1,1.1868543E1,0E0,1.2218723E0,1.2020386E1,7.0037336E0,1.397028E0,4.2133155E0,1.8716643E0,0E0,0E0,0E0,0E0,0E0,0E0,0E0,0E0,0E0,0E0,0E0],"parents":[2147483647,0,0,1,1,3,3,4,4,5,5,8,8,9,9,10,10,12,12,13,13,14,14,15,15,16,16,17,17],"right_children":[2,4,-1,6,8,10,-1,-1,12,14,16,-1,18,20,22,24,26,28,-1,-1,-1,-1,-1,-1,-1,-1,-1,-1,-1],"split_conditions":[1E0,1E0,9.023019E-2,1E0,4E-3,1.796098E2,1.0004957E-1,2.565178E-2,1.398E3,2.068E3,6.971E2,9.5170096E-2,5.59E-1,1.6942E1,2.323E0,3.835E0,3.4941046E2,9.48E2,9.056275E-2,-5.831768E-2,5.6916054E-2,-2.954027E-2,6.831649E-2,-6.010292E-5,7.630121E-2,-5.565835E-2,2.3266986E-2,8.223412E-2,1.02982875E-2],"split_indices":[14,13,0,15,1,0,0,0,5,5,3,0,1,2,2,9,0,3,0,0,0,0,0,0,0,0,0,0,0],"split_type":[0,0,0,0,0,0,0,0,0,0,0,0,0,0,0,0,0,0,0,0,0,0,0,0,0,0,0,0,0],"sum_hessian":[1.3962257E3,1.0661575E3,3.3006824E2,9.075218E2,1.5863565E2,8.8321185E2,2.4309912E1,1.4246309E0,1.5721101E2,8.2014465E2,6.3067226E1,1.1182319E2,4.538783E1,7.9163605E2,2.8508587E1,3.7843414E1,2.5223812E1,1.4178736E1,3.1209095E1,7.8322766E2,8.4084E0,1.1608894E1,1.6899693E1,2.5635598E0,3.5279854E1,1.2438611E1,1.27852E1,6.9092073E0,7.2695284E0],"tree_param":{"num_deleted":"0","num_feature":"16","num_nodes":"29","size_leaf_vector":"1"}},{"base_weights":[-2.6456597E-1,1.7930189E-1,-4.1035137E-1,3.2795444E-1,-6.5461464E-2,-3.596299E-1,-6.277734E-2,5.1576006E-1,-6.224363E-2,-4.0587184E-1,1.3487929E-1,6.5616745E-1,2.5480384E-1,-1.9374806E-1,-4.595988E-1,9.611459E-1,-2.1686591E-2,6.8253183E-1,-5.180145E-2,4.617791E-1,6.73933E-2,2.1695375E-1,-2.8767607E-1,2.147658E-1,-4.7576293E-1,1.2796484E0,1.009339E-2,-6.26347E-2,2.1709514E-1,6.995892E-2,-4.27653E-2,3.728443E-2,8.62789E-2,5.8707654E-2,-6.6940016E-3,3.682925E-2,-5.248189E-2,-2.0518035E-2,-6.0745426E-2,-6.324545E-4,8.5314915E-2,-9.450927E-3,-5.0562512E-2,1.4176625E-1,5.2567918E-2,4.4608064E-2,-3.9697696E-2,8.363934E-2,-3.3922866E-4],"categories":[],"categories_nodes":[],"categories_segments":[],"categories_sizes":[],"default_left":[0,0,0,0,0,0,0,0,0,0,0,0,0,0,0,0,0,0,0,0,0,0,0,0,0,0,0,0,0,0,0,0,0,0,0,0,0,0,0,0,0,0,0,0,0,0,0,0,0],"id":18,"left_children":[1,3,5,7,-1,9,-1,11,-1,13,15,17,19,21,23,25,27,29,-1,31,33,35,37,39,41,43,45,-1,47,-1,-1,-1,-1,-1,-1,-1,-1,-1,-1,-1,-1,-1,-1,-1,-1,-1,-1,-1,-1],"loss_changes":[8.469937E1,4.0382763E1,1.0634033E1,4.95258E1,0E0,1.8367111E1,0E0,8.286953E0,0E0,8.260063E0,8.977047E0,4.977928E0,3.1632457E0,5.840406E0,6.46595E0,3.3345003E0,8.680667E0,3.0740585E0,0E0,1.0678539E0,3.138155E0,3.3869524E0,3.1025047E0,2.0314522E0,6.4468536E0,1.15371704E-1,8.480082E-1,0E0,5.8975058E0,0E0,0E0,0E0,0E0,0E0,0E0,0E0,0E0,0E0,0E0,0E0,0E0,0E0,0E0,0E0,0E0,0E0,0E0,0E0,0E0],"parents":[2147483647,0,0,1,1,2,2,3,3,5,5,7,7,9,9,10,10,11,11,12,12,13,13,14,14,15,15,16,16,17,17,19,19,20,20,21,21,22,22,23,23,24,24,25,25,26,26,28,28],"right_children":[2,4,6,8,-1,10,-1,12,-1,14,16,18,20,22,24,26,28,30,-1,32,34,36,38,40,42,44,46,-1,48,-1,-1,-1,-1,-1,-1,-1,-1,-1,-1,-1,-1,-1,-1,-1,-1,-1,-1,-1,-1],"split_conditions":[1.43E1,1E0,1E0,1E0,-6.5461464E-2,3.0814E3,-6.277734E-2,1.22E1,-6.224363E-2,1.82E1,2.0744E0,1E0,4.401E0,1.67E1,1.013E0,3.739E2,5.1174016E0,1E0,-5.180145E-2,3.26E0,2.615765E0,1E0,1E0,3.61E0,3.969E0,9.78E-1,3.0222E4,-6.26347E-2,3.576E0,6.995892E-2,-4.27653E-2,3.728443E-2,8.62789E-2,5.8707654E-2,-6.6940016E-3,3.682925E-2,-5.248189E-2,-2.0518035E-2,-6.0745426E-2,-6.324545E-4,8.5314915E-2,-9.450927E-3,-5.0562512E-2,1.4176625E-1,5.2567918E-2,4.4608064E-2,-3.9697696E-2,8.363934E-2,-3.3922866E-4],"split_indices":[7,12,13,14,0,3,0,7,0,7,2,13,9,6,2,7,0,15,0,4,0,12,14,4,9,1,3,0,2,0,0,0,0,0,0,0,0,0,0,0,0,0,0,0,0,0,0,0,0],"split_type":[0,0,0,0,0,0,0,0,0,0,0,0,0,0,0,0,0,0,0,0,0,0,0,0,0,0,0,0,0,0,0,0,0,0,0,0,0,0,0,0,0,0,0,0,0,0,0,0,0],"sum_hessian":[1.3067811E3,3.2303067E2,9.837505E2,2.746744E2,4.8356266E1,7.9981824E2,1.8393222E2,2.297342E2,4.4940193E1,7.315863E2,6.823196E1,1.4838255E2,8.135165E1,1.4878049E2,5.828058E2,1.0050764E1,5.8181194E1,1.4553355E2,2.8490064E0,3.7962288E1,4.3389362E1,2.7449093E1,1.213314E2,1.3354904E1,5.694509E2,7.2704277E0,2.780336E0,1.6011818E1,4.2169376E1,1.436956E2,1.8379532E0,3.2650845E1,5.3114433E0,8.219813E0,3.5169548E1,2.3215992E1,4.233102E0,9.775451E1,2.3576885E1,1.0654901E1,2.7000031E0,4.1665688E1,5.277852E2,5.4014297E0,1.868998E0,1.2962127E0,1.4841232E0,1.0338246E1,3.183113E1],"tree_param":{"num_deleted":"0","num_feature":"16","num_nodes":"49","size_leaf_vector":"1"}},{"base_weights":[1.988151E-1,3.393268E-1,-6.240211E-2,4.2448956E-1,-5.981329E-1,-2.7143055E-1,5.841749E-1,-1.4937077E-1,-6.1402726E-1,-4.0087542E-1,-7.4493214E-2,6.228985E-1,-3.504967E-1,3.923045E-2,-4.561871E-2,-3.2966122E-1,-6.28935E-2,-4.917076E-1,-2.0594174E-1,-7.795002E-3,-5.5857646E-1,6.387105E-1,-6.1689254E-2,6.678745E-2,-4.501684E-1,-5.5278488E-2,2.5010148E-2,-6.0407996E-2,-2.9524747E-2,3.4257423E-2,-2.7507428E-2,-4.0558483E-3,8.588245E-2,-2.3017077E-2,-6.3152604E-2,6.5119624E-2,-6.2041324E-2,-3.5668306E-2,4.8810463E-2,-6.4777136E-3,-6.1817016E-2],"categories":[],"categories_nodes":[],"categories_segments":[],"categories_sizes":[],"default_left":[0,0,0,0,0,0,0,0,0,0,0,0,0,0,0,0,0,0,0,0,0,0,0,0,0,0,0,0,0,0,0,0,0,0,0,0,0,0,0,0,0],"id":19,"left_children":[1,3,-1,5,7,9,11,13,15,17,19,21,23,-1,-1,25,-1,27,29,31,33,35,-1,37,39,-1,-1,-1,-1,-1,-1,-1,-1,-1,-1,-1,-1,-1,-1,-1,-1],"loss_changes":[1.7167441E2,1.0143472E2,0E0,1.2933292E2,6.640625E-1,5.5179386E0,3.444922E1,1.0009555E0,2.2512054E-1,2.2197666E0,2.8220687E0,1.8203888E1,1.6215363E0,0E0,0E0,1.0674491E0,0E0,1.7798157E0,1.7394749E0,2.2481787E0,1.0826564E-1,1.4514435E1,0E0,1.6457351E0,1.968132E0,0E0,0E0,0E0,0E0,0E0,0E0,0E0,0E0,0E0,0E0,0E0,0E0,0E0,0E0,0E0,0E0],"parents":[2147483647,0,0,1,1,3,3,4,4,5,5,6,6,7,7,8,8,9,9,10,10,11,11,12,12,15,15,17,17,18,18,19,19,20,20,21,21,23,23,24,24],"right_children":[2,4,-1,6,8,10,12,14,16,18,20,22,24,-1,-1,26,-1,28,30,32,34,36,-1,38,40,-1,-1,-1,-1,-1,-1,-1,-1,-1,-1,-1,-1,-1,-1,-1,-1],"split_conditions":[1E0,1E0,-6.240211E-2,1.33E1,1.0624E1,1.15E1,1.357E1,2.222E1,1.08E-1,5.77E-1,3.23E0,1E0,3.02E1,3.923045E-2,-4.561871E-2,1.0222E3,-6.28935E-2,4.491E0,4.947E3,2.88E0,5.316E3,6.9E3,-6.1689254E-2,1.228E0,1.9E1,-5.5278488E-2,2.5010148E-2,-6.0407996E-2,-2.9524747E-2,3.4257423E-2,-2.7507428E-2,-4.0558483E-3,8.588245E-2,-2.3017077E-2,-6.3152604E-2,6.5119624E-2,-6.2041324E-2,-3.5668306E-2,4.8810463E-2,-6.4777136E-3,-6.1817016E-2],"split_indices":[14,13,0,7,11,7,4,4,1,1,4,15,7,0,0,7,0,9,8,4,8,8,0,1,4,0,0,0,0,0,0,0,0,0,0,0,0,0,0,0,0],"split_type":[0,0,0,0,0,0,0,0,0,0,0,0,0,0,0,0,0,0,0,0,0,0,0,0,0,0,0,0,0,0,0,0,0,0,0,0,0,0,0,0,0],"sum_hessian":[1.4820087E3,1.2663481E3,2.1566045E2,1.1613899E3,1.04958305E2,2.166246E2,9.4476526E2,3.9459498E0,1.0101235E2,1.3008534E2,8.653927E1,9.075009E2,3.7264385E1,1.3261104E0,2.6198394E0,6.183099E0,9.4829254E1,8.76985E1,4.2386837E1,7.6952644E1,9.586627E0,8.9655133E2,1.0949582E1,7.248372E0,3.001601E1,4.498405E0,1.6846938E0,5.4468494E1,3.3230007E1,4.3015842E0,3.808525E1,7.5067825E1,1.8848207E0,2.4976895E0,7.0889373E0,8.882263E2,8.324986E0,3.6914575E0,3.5569148E0,9.533046E0,2.0482965E1],"tree_param":{"num_deleted":"0","num_feature":"16","num_nodes":"41","size_leaf_vector":"1"}},{"base_weights":[2.0552332E-2,-1.07792504E-1,8.55305E-2,-2.1448629E-1,9.489573E-2,-3.255216E-1,6.0461116E-1,-3.9884943E-1,5.387464E-1,1.280775E-1,6.928791E-1,1.9050841E-1,-4.896312E-1,2.11227E-1,8.152188E-2,-4.8574127E-2,2.303983E-1,2.2295018E-1,7.20487E-1,7.445155E-3,5.2586164E-2,-5.0273564E-2,-6.813561E-3,-9.621214E-3,5.220169E-2,9.218361E-3,6.671123E-2,6.3381486E-2,-1.0326662E-2,7.321338E-2,1.652226E-2],"categories":[],"categories_nodes":[],"categories_segments":[],"categories_sizes":[],"default_left":[0,0,0,0,0,0,0,0,0,0,0,0,0,0,0,0,0,0,0,0,0,0,0,0,0,0,0,0,0,0,0],"id":20,"left_children":[1,3,-1,5,-1,7,9,11,13,15,17,19,21,23,-1,-1,25,27,29,-1,-1,-1,-1,-1,-1,-1,-1,-1,-1,-1,-1],"loss_changes":[1.4654439E2,1.3388896E2,0E0,9.821915E1,0E0,6.040615E1,5.3377724E0,4.6965088E1,6.592346E0,1.4552591E0,1.2485962E0,4.539879E0,4.160309E0,3.4465427E0,0E0,0E0,1.08601E0,1.0673913E0,5.3961945E-1,0E0,0E0,0E0,0E0,0E0,0E0,0E0,0E0,0E0,0E0,0E0,0E0],"parents":[2147483647,0,0,1,1,3,3,5,5,6,6,7,7,8,8,9,9,10,10,11,11,12,12,13,13,16,16,17,17,18,18],"right_children":[2,4,-1,6,-1,8,10,12,14,16,18,20,22,24,-1,-1,26,28,30,-1,-1,-1,-1,-1,-1,-1,-1,-1,-1,-1,-1],"split_conditions":[1E0,1E0,8.55305E-2,9.86E-1,9.489573E-2,1.1766E4,1.93E1,2.0241435E0,3.9413E4,1.536E0,1.3705E0,6.023E3,6.495E3,5.065E0,8.152188E-2,-4.8574127E-2,9.18E2,1.0528E0,7.872E3,7.445155E-3,5.2586164E-2,-5.0273564E-2,-6.813561E-3,-9.621214E-3,5.220169E-2,9.218361E-3,6.671123E-2,6.3381486E-2,-1.0326662E-2,7.321338E-2,1.652226E-2],"split_indices":[15,12,0,1,0,3,7,0,3,2,2,8,8,2,0,0,5,2,8,0,0,0,0,0,0,0,0,0,0,0,0],"split_type":[0,0,0,0,0,0,0,0,0,0,0,0,0,0,0,0,0,0,0,0,0,0,0,0,0,0,0,0,0,0,0],"sum_hessian":[1.3659724E3,1.1846942E3,1.8127817E2,1.0767756E3,1.0791865E2,9.487653E2,1.2801025E2,8.7506036E2,7.370497E1,2.0388659E1,1.076216E2,1.16652245E2,7.5840814E2,3.454532E1,3.9159653E1,2.3776972E0,1.8010962E1,6.4754324E0,1.01146164E2,8.7568954E1,2.9083288E1,7.3535297E2,2.3055124E1,1.771336E1,1.6831957E1,1.4601005E1,3.4099562E0,2.4485717E0,4.0268607E0,9.87562E1,2.38996E0],"tree_param":{"num_deleted":"0","num_feature":"16","num_nodes":"31","size_leaf_vector":"1"}},{"base_weights":[-2.5534734E-1,1.2853162E-1,-4.1925475E-1,2.5058708E-1,-6.348864E-2,2.6435742E-1,-4.3326572E-1,3.0998763E-1,-5.905251E-2,-3.5546377E-1,4.8711157E-1,-3.859909E-1,-6.1690252E-2,4.4438034E-1,8.581498E-2,9.119543E-3,-5.0012346E-2,6.696628E-1,-4.4466488E-2,-4.479623E-1,-7.777991E-2,4.787294E-1,-5.51784E-2,-1.2713948E-2,6.250128E-1,3.1314322E-1,9.007763E-2,-4.719014E-1,-1.5968597E-1,-4.0108863E-1,1.3284776E-1,6.9053913E-3,5.0930537E-2,3.557825E-2,-1.1486383E-2,9.4759345E-2,2.0127293E-2,5.8955994E-2,-4.2716138E-2,-2.762478E-2,-5.037815E-2,3.3485837E-2,-4.5504723E-2,7.462156E-3,-4.8306253E-2,-1.0147403E-2,4.2578515E-2],"categories":[],"categories_nodes":[],"categories_segments":[],"categories_sizes":[],"default_left":[0,0,0,0,0,0,0,0,0,0,0,0,0,0,0,0,0,0,0,0,0,0,0,0,0,0,0,0,0,0,0,0,0,0,0,0,0,0,0,0,0,0,0,0,0,0,0],"id":21,"left_children":[1,3,5,7,-1,9,11,13,-1,15,17,19,-1,21,23,-1,-1,25,-1,27,29,31,-1,33,35,37,-1,39,41,43,45,-1,-1,-1,-1,-1,-1,-1,-1,-1,-1,-1,-1,-1,-1,-1,-1],"loss_changes":[7.858935E1,3.5030468E1,8.494659E0,1.6339458E1,0E0,2.685018E0,7.2082367E0,9.081232E0,0E0,3.9373803E-1,2.6459887E0,1.3045052E1,0E0,6.7313614E0,6.1011257E0,0E0,0E0,7.019563E-1,0E0,3.8579254E0,7.942495E0,2.2601357E0,0E0,3.7279577E0,2.234138E0,1.5266702E0,0E0,3.1400986E0,6.756511E0,1.8279009E0,4.9099894E0,0E0,0E0,0E0,0E0,0E0,0E0,0E0,0E0,0E0,0E0,0E0,0E0,0E0,0E0,0E0,0E0],"parents":[2147483647,0,0,1,1,2,2,3,3,5,5,6,6,7,7,9,9,10,10,11,11,13,13,14,14,17,17,19,19,20,20,21,21,23,23,24,24,25,25,27,27,28,28,29,29,30,30],"right_children":[2,4,6,8,-1,10,12,14,-1,16,18,20,-1,22,24,-1,-1,26,-1,28,30,32,-1,34,36,38,-1,40,42,44,46,-1,-1,-1,-1,-1,-1,-1,-1,-1,-1,-1,-1,-1,-1,-1,-1],"split_conditions":[1.59E1,1E0,2.56E2,1E0,-6.348864E-2,2.41E0,1E0,1.27E1,-5.905251E-2,1.72E1,2.851E2,5.71E0,-6.1690252E-2,1E0,1.453E0,9.119543E-3,-5.0012346E-2,4.6E0,-4.4466488E-2,9.3E-1,5.67578E0,1.7142748E0,-5.51784E-2,5.44E2,2.062E0,3.96E0,9.007763E-2,1.88E1,6.95E2,8.91E0,8.16E-1,6.9053913E-3,5.0930537E-2,3.557825E-2,-1.1486383E-2,9.4759345E-2,2.0127293E-2,5.8955994E-2,-4.2716138E-2,-2.762478E-2,-5.037815E-2,3.3485837E-2,-4.5504723E-2,7.462156E-3,-4.8306253E-2,-1.0147403E-2,4.2578515E-2],"split_indices":[7,12,5,15,0,4,13,7,0,7,7,4,0,13,10,0,0,4,0,1,0,0,0,5,10,4,0,7,5,4,1,0,0,0,0,0,0,0,0,0,0,0,0,0,0,0,0],"split_type":[0,0,0,0,0,0,0,0,0,0,0,0,0,0,0,0,0,0,0,0,0,0,0,0,0,0,0,0,0,0,0,0,0,0,0,0,0,0,0,0,0,0,0,0,0,0,0],"sum_hessian":[1.2471677E3,3.7323935E2,8.739284E2,3.2237042E2,5.086891E1,1.7193008E1,8.5673535E2,3.016957E2,2.0674734E1,4.387862E0,1.2805147E1,6.838017E2,1.729337E2,1.88004E2,1.136917E2,1.1638575E0,3.2240045E0,1.0942606E1,1.8625412E0,5.6895044E2,1.1485126E2,1.8223956E2,5.764436E0,9.695187E1,1.673983E1,5.229864E0,5.712742E0,5.2473804E2,4.4212364E1,4.4949905E1,6.990135E1,1.2883049E1,1.693565E2,2.0503696E1,7.644818E1,8.802493E0,7.937338E0,3.9562829E0,1.2735814E0,7.487602E1,4.4986203E2,1.648187E1,2.7730492E1,6.6203637E0,3.832954E1,3.9199284E1,3.0702065E1],"tree_param":{"num_deleted":"0","num_feature":"16","num_nodes":"47","size_leaf_vector":"1"}},{"base_weights":[2.0676205E-1,3.425467E-1,-6.1365046E-2,4.223357E-1,-5.430664E-1,-1.4048341E-1,5.738136E-1,-1.3266957E-1,-5.77986E-1,-3.4934396E-1,9.517785E-2,6.124276E-1,-1.8580987E-1,3.5184583E-1,-5.501309E-2,-5.9519565E-1,-1.2783988E-1,-3.772639E-1,5.615624E-1,-3.508123E-1,1.6109762E-1,6.3210344E-1,-3.2449734E-1,9.973547E-2,-6.415028E-2,6.709476E-2,-3.7480973E-2,-6.263563E-2,-4.5493665E-1,4.0303733E-2,-4.4048473E-2,-3.049927E-2,-6.2731706E-2,8.031789E-2,8.874413E-4,3.667321E-2,-4.5114115E-2,3.2099817E-2,-1.1455089E-2,6.409055E-2,-5.6835216E-2,-5.1640677E-3,-5.435535E-2,-5.557723E-2,2.9705916E-2,-4.6990984E-3,-5.3374913E-2],"categories":[],"categories_nodes":[],"categories_segments":[],"categories_sizes":[],"default_left":[0,0,0,0,0,0,0,0,0,0,0,0,0,0,0,0,0,0,0,0,0,0,0,0,0,0,0,0,0,0,0,0,0,0,0,0,0,0,0,0,0,0,0,0,0,0,0],"id":22,"left_children":[1,3,-1,5,7,9,11,13,15,17,19,21,23,25,-1,27,29,31,33,35,37,39,41,43,-1,-1,-1,-1,45,-1,-1,-1,-1,-1,-1,-1,-1,-1,-1,-1,-1,-1,-1,-1,-1,-1,-1],"loss_changes":[1.6128592E2,8.793823E1,0E0,9.7204254E1,1.3997498E0,1.1963884E1,2.6448914E1,2.090133E0,6.571312E-1,3.4854584E0,3.4279108E0,1.595993E1,5.8151603E0,1.3991953E0,0E0,1.12285614E-1,9.6737695E-1,2.076439E0,5.5771327E-1,1.2511823E0,4.470559E0,9.212555E0,1.0621027E0,3.7916825E0,0E0,0E0,0E0,0E0,6.2359095E-1,0E0,0E0,0E0,0E0,0E0,0E0,0E0,0E0,0E0,0E0,0E0,0E0,0E0,0E0,0E0,0E0,0E0,0E0],"parents":[2147483647,0,0,1,1,3,3,4,4,5,5,6,6,7,7,8,8,9,9,10,10,11,11,12,12,13,13,15,15,16,16,17,17,18,18,19,19,20,20,21,21,22,22,23,23,28,28],"right_children":[2,4,-1,6,8,10,12,14,16,18,20,22,24,26,-1,28,30,32,34,36,38,40,42,44,-1,-1,-1,-1,46,-1,-1,-1,-1,-1,-1,-1,-1,-1,-1,-1,-1,-1,-1,-1,-1,-1,-1],"split_conditions":[1E0,1E0,-6.1365046E-2,1.43E1,1.36E-1,1.18E1,9.66E-1,1.4169E1,3.5065E3,1.5984E1,1.7645E0,3.64763E3,4.35E1,8.872E0,-5.501309E-2,1.642E3,5.2257E0,6.536E0,4.83E-1,6.6E-2,4.822E0,1E0,1.9743E0,3.712E1,-6.415028E-2,6.709476E-2,-3.7480973E-2,-6.263563E-2,1.737E3,4.0303733E-2,-4.4048473E-2,-3.049927E-2,-6.2731706E-2,8.031789E-2,8.874413E-4,3.667321E-2,-4.5114115E-2,3.2099817E-2,-1.1455089E-2,6.409055E-2,-5.6835216E-2,-5.1640677E-3,-5.435535E-2,-5.557723E-2,2.9705916E-2,-4.6990984E-3,-5.3374913E-2],"split_indices":[14,13,0,7,1,7,1,11,7,11,2,6,7,2,0,5,2,2,1,1,2,15,2,6,0,0,0,0,5,0,0,0,0,0,0,0,0,0,0,0,0,0,0,0,0,0,0],"split_type":[0,0,0,0,0,0,0,0,0,0,0,0,0,0,0,0,0,0,0,0,0,0,0,0,0,0,0,0,0,0,0,0,0,0,0,0,0,0,0,0,0,0,0,0,0,0,0],"sum_hessian":[1.4449296E3,1.2402422E3,2.0468729E2,1.138218E3,1.0202423E2,2.413924E2,8.968256E2,8.376601E0,9.364763E1,1.2771736E2,1.1367503E2,8.536269E2,4.3198708E1,3.9496832E0,4.4269176E0,8.988884E1,3.758791E0,1.2448756E2,3.2297983E0,1.4081654E1,9.9593376E1,8.3638776E2,1.7239168E1,2.70376E1,1.6161108E1,2.79775E0,1.1519334E0,7.071314E1,1.9175695E1,1.2860059E0,2.4727852E0,9.8297104E1,2.6190454E1,1.9319795E0,1.2978187E0,1.4016756E0,1.2679978E1,6.292613E1,3.6667248E1,8.3076245E2,5.6252713E0,8.227154E0,9.012013E0,5.8355145E0,2.1202085E1,3.3632448E0,1.5812449E1],"tree_param":{"num_deleted":"0","num_feature":"16","num_nodes":"47","size_leaf_vector":"1"}},{"base_weights":[1.46941515E-2,-1.9317292E-1,7.981843E-1,-3.4271196E-1,8.809155E-1,2.1310782E-2,8.0036394E-2,-4.5262268E-1,8.1491195E-2,8.874841E-2,1.7460234E-2,4.821835E-2,-5.099456E-1,-4.644427E-2,4.060133E-1,-5.347355E-1,-8.420814E-2,1.8768243E-2,-2.2421248E-2,-1.0223121E-2,6.838295E-2,4.4900603E-3,-5.4112084E-2,-2.9710043E-2,2.3723122E-2],"categories":[],"categories_nodes":[],"categories_segments":[],"categories_sizes":[],"default_left":[0,0,0,0,0,0,0,0,0,0,0,0,0,0,0,0,0,0,0,0,0,0,0,0,0],"id":23,"left_children":[1,3,5,7,9,-1,-1,11,-1,-1,-1,13,15,17,19,21,23,-1,-1,-1,-1,-1,-1,-1,-1],"loss_changes":[2.163335E2,1.6892847E2,1.8460083E-1,1.1771505E2,4.416046E-1,0E0,0E0,2.4225342E1,0E0,0E0,0E0,2.9819067E0,7.938675E0,2.9587333E0,2.6687863E0,2.669342E0,3.0001044E0,0E0,0E0,0E0,0E0,0E0,0E0,0E0,0E0],"parents":[2147483647,0,0,1,1,2,2,3,3,4,4,7,7,11,11,12,12,13,13,14,14,15,15,16,16],"right_children":[2,4,6,8,10,-1,-1,12,-1,-1,-1,14,16,18,20,22,24,-1,-1,-1,-1,-1,-1,-1,-1],"split_conditions":[1E0,1E0,4E-3,1E0,4.74E0,2.1310782E-2,8.0036394E-2,1.7142748E0,8.1491195E-2,8.874841E-2,1.7460234E-2,1.9588E0,9.74E-1,1.84E1,4.264E0,7E0,2.41E1,1.8768243E-2,-2.2421248E-2,-1.0223121E-2,6.838295E-2,4.4900603E-3,-5.4112084E-2,-2.9710043E-2,2.3723122E-2],"split_indices":[13,12,1,15,9,0,0,0,0,0,0,2,1,7,9,7,7,0,0,0,0,0,0,0,0],"split_type":[0,0,0,0,0,0,0,0,0,0,0,0,0,0,0,0,0,0,0,0,0,0,0,0,0],"sum_hessian":[1.3263788E3,1.0488601E3,2.7751868E2,9.2127704E2,1.2758306E2,1.3966559E0,2.7612204E2,8.4194727E2,7.932978E1,1.2615336E2,1.4297062E0,8.6483505E1,7.5546375E2,6.907766E1,1.740584E1,7.13653E2,4.1810745E1,2.9788904E1,3.9288757E1,6.3750916E0,1.1030749E1,7.7102823E0,7.0594275E2,2.5197754E1,1.661299E1],"tree_param":{"num_deleted":"0","num_feature":"16","num_nodes":"25","size_leaf_vector":"1"}},{"base_weights":[-2.363711E-1,1.0924732E-1,-3.9623782E-1,2.4197042E-1,-6.160763E-2,-4.3221116E-1,-1.1609123E-1,-2.8620285E-1,2.9573044E-1,-3.9076117E-1,-6.0349133E-2,-1.3105342E-2,-5.7400286E-2,4.149053E-2,-3.3024022E-1,4.3120542E-1,9.089142E-2,-4.4421595E-1,-1.3400646E-1,-8.087222E-2,6.946279E-1,-3.613451E-1,-3.1588186E-2,4.552219E-1,-4.9519848E-2,4.800459E-3,4.9783275E-1,-1.5775913E-1,-4.6462345E-1,4.433785E-2,-5.9584733E-2,-1.429586E-1,7.823508E-1,8.4040105E-1,1.1218581E-3,-5.3848337E-2,-1.8670706E-2,3.821917E-2,-3.841888E-2,-5.148322E-3,5.0376475E-2,-1.0438871E-2,3.1280573E-2,6.272484E-2,-2.3675567E-2,-2.6632627E-2,7.688923E-2,-1.9485552E-2,-4.815085E-2,-1.596292E-2,5.7052642E-2,7.324968E-2,-2.0915497E-2,9.833573E-2,2.7071634E-2,9.479841E-2,3.0607892E-2],"categories":[],"categories_nodes":[],"categories_segments":[],"categories_sizes":[],"default_left":[0,0,0,0,0,0,0,0,0,0,0,0,0,0,0,0,0,0,0,0,0,0,0,0,0,0,0,0,0,0,0,0,0,0,0,0,0,0,0,0,0,0,0,0,0,0,0,0,0,0,0,0,0,0,0,0,0],"id":24,"left_children":[1,3,5,7,-1,9,11,13,15,17,-1,19,-1,-1,21,23,25,27,29,31,33,35,37,39,-1,41,43,45,47,49,-1,51,53,55,-1,-1,-1,-1,-1,-1,-1,-1,-1,-1,-1,-1,-1,-1,-1,-1,-1,-1,-1,-1,-1,-1,-1],"loss_changes":[6.727334E1,3.727013E1,8.336227E0,9.3605E0,0E0,4.997284E0,4.522744E0,1.0844836E0,8.202442E0,8.124756E0,0E0,3.8666587E0,0E0,0E0,2.6198077E-1,4.196743E0,4.184001E0,2.8094635E0,8.608046E0,4.0458226E0,6.926124E-1,7.2105193E-1,7.117353E-1,4.318226E0,0E0,3.3836048E0,2.1312213E0,3.6563663E0,2.0006638E0,8.257855E0,0E0,4.170619E0,2.5619268E-1,4.2936802E-2,0E0,0E0,0E0,0E0,0E0,0E0,0E0,0E0,0E0,0E0,0E0,0E0,0E0,0E0,0E0,0E0,0E0,0E0,0E0,0E0,0E0,0E0,0E0],"parents":[2147483647,0,0,1,1,2,2,3,3,5,5,6,6,7,7,8,8,9,9,11,11,14,14,15,15,16,16,17,17,18,18,19,19,20,20,21,21,22,22,23,23,25,25,26,26,27,27,28,28,29,29,31,31,32,32,33,33],"right_children":[2,4,6,8,-1,10,12,14,16,18,-1,20,-1,-1,22,24,26,28,30,32,34,36,38,40,-1,42,44,46,48,50,-1,52,54,56,-1,-1,-1,-1,-1,-1,-1,-1,-1,-1,-1,-1,-1,-1,-1,-1,-1,-1,-1,-1,-1,-1,-1],"split_conditions":[1.59E1,1E0,6.2596542E1,3.25E2,-6.160763E-2,1E0,1E0,6E-3,1.26E1,9.15E-1,-6.0349133E-2,4.109939E2,-5.7400286E-2,4.149053E-2,8.85E-1,1E0,1.463E0,3.969E0,1E0,1.5861E1,1.385E2,9.03E-1,9.46E-1,1.2278E1,-4.9519848E-2,4.557E0,6.319E3,1.4467E1,1.0819372E0,6.79E1,-5.9584733E-2,3.772E0,3.3E2,8.52E1,1.1218581E-3,-5.3848337E-2,-1.8670706E-2,3.821917E-2,-3.841888E-2,-5.148322E-3,5.0376475E-2,-1.0438871E-2,3.1280573E-2,6.272484E-2,-2.3675567E-2,-2.6632627E-2,7.688923E-2,-1.9485552E-2,-4.815085E-2,-1.596292E-2,5.7052642E-2,7.324968E-2,-2.0915497E-2,9.833573E-2,2.7071634E-2,9.479841E-2,3.0607892E-2],"split_indices":[7,14,0,5,0,13,13,1,7,1,0,0,0,0,1,15,10,9,14,11,7,10,1,11,0,9,8,11,0,7,0,9,5,7,0,0,0,0,0,0,0,0,0,0,0,0,0,0,0,0,0,0,0,0,0,0,0],"split_type":[0,0,0,0,0,0,0,0,0,0,0,0,0,0,0,0,0,0,0,0,0,0,0,0,0,0,0,0,0,0,0,0,0,0,0,0,0,0,0,0,0,0,0,0,0,0,0,0,0,0,0,0,0,0,0,0,0],"sum_hessian":[1.2157703E3,3.8460443E2,8.3116583E2,3.2567694E2,5.892749E1,7.36101E2,9.506483E1,2.9687176E1,2.9598978E2,5.953154E2,1.4078561E2,7.8449814E1,1.6615011E1,1.2567712E0,2.8430405E1,1.7749457E2,1.1849519E2,4.9212735E2,1.0318808E2,7.240283E1,6.0469856E0,2.5558537E1,2.8718662E0,1.7350516E2,3.989407E0,9.8639244E1,1.9855947E1,3.330871E1,4.5881863E2,7.509386E1,2.8094223E1,6.832315E1,4.0796785E0,4.794571E0,1.2524147E0,1.1654134E1,1.3904404E1,1.2826928E0,1.5891734E0,1.51634865E1,1.5834167E2,7.33112E1,2.5328047E1,1.7006042E1,2.8499055E0,3.0453363E1,2.8553455E0,2.7764944E1,4.3105368E2,5.4618618E1,2.0475243E1,4.095404E0,6.4227745E1,2.2670338E0,1.8126446E0,3.3465745E0,1.4479967E0],"tree_param":{"num_deleted":"0","num_feature":"16","num_nodes":"57","size_leaf_vector":"1"}},{"base_weights":[1.8801819E-1,3.1145206E-1,-6.0429543E-2,-2.495405E-1,4.2224437E-1,-3.943543E-1,-5.0658885E-2,5.2363354E-1,-4.5350704E-1,-5.034637E-1,-2.1459848E-1,9.0755604E-2,-3.180977E-1,5.3859514E-1,-5.8582075E-2,-2.700283E-1,-5.623636E-1,1.200388E-2,-5.148111E-1,2.2340767E-1,-2.8678522E-1,-1.2906308E-1,2.8126222E-1,2.5986737E-1,-4.339066E-1,5.5760396E-1,-3.174506E-1,-5.9260267E-1,-4.790918E-2,-1.4620188E-1,-5.7406896E-1,-4.1651554E-2,-6.0369354E-2,-2.9976716E-2,7.1946345E-2,-5.9793856E-2,-1.9576898E-2,4.1946143E-2,-2.8318737E-2,3.8735636E-2,-5.189659E-2,-4.514012E-2,7.428058E-2,-3.646662E-6,-5.1340964E-2,5.7934504E-2,-1.2397898E-2,-5.4175027E-2,1.16481325E-2,-6.4748645E-2,1.0155051E-2,1.7648244E-2,-4.0089738E-2,1.0367286E-2,-3.337164E-2,-3.2801673E-2,-5.877754E-2],"categories":[],"categories_nodes":[],"categories_segments":[],"categories_sizes":[],"default_left":[0,0,0,0,0,0,0,0,0,0,0,0,0,0,0,0,0,0,0,0,0,0,0,0,0,0,0,0,0,0,0,0,0,0,0,0,0,0,0,0,0,0,0,0,0,0,0,0,0,0,0,0,0,0,0,0,0],"id":25,"left_children":[1,3,-1,5,7,9,11,13,15,17,19,21,23,25,-1,27,29,-1,31,33,35,37,39,41,43,45,47,49,51,53,55,-1,-1,-1,-1,-1,-1,-1,-1,-1,-1,-1,-1,-1,-1,-1,-1,-1,-1,-1,-1,-1,-1,-1,-1,-1,-1],"loss_changes":[1.4010767E2,7.708324E1,0E0,5.8809137E0,9.210347E1,2.2143688E0,3.3371465E0,1.5715118E1,2.0030098E0,5.7787704E-1,1.5333364E0,2.465038E0,2.152748E0,1.5081116E1,0E0,2.9879575E0,2.4143219E-1,0E0,3.760929E-1,2.0678842E0,1.0251446E0,2.4531682E0,2.865563E0,2.2977047E0,8.8871527E-1,1.3354675E1,2.0616493E0,7.164335E-1,2.1316674E0,1.8307789E-1,2.5136948E-2,0E0,0E0,0E0,0E0,0E0,0E0,0E0,0E0,0E0,0E0,0E0,0E0,0E0,0E0,0E0,0E0,0E0,0E0,0E0,0E0,0E0,0E0,0E0,0E0,0E0,0E0],"parents":[2147483647,0,0,1,1,3,3,4,4,5,5,6,6,7,7,8,8,9,9,10,10,11,11,12,12,13,13,15,15,16,16,18,18,19,19,20,20,21,21,22,22,23,23,24,24,25,25,26,26,27,27,28,28,29,29,30,30],"right_children":[2,4,-1,6,8,10,12,14,16,18,20,22,24,26,-1,28,30,-1,32,34,36,38,40,42,44,46,48,50,52,54,56,-1,-1,-1,-1,-1,-1,-1,-1,-1,-1,-1,-1,-1,-1,-1,-1,-1,-1,-1,-1,-1,-1,-1,-1,-1,-1],"split_conditions":[1E0,1.33E1,-6.0429543E-2,1.14E1,1.416E1,4.75E-1,5.933E3,1E0,2.977E1,1.1075E1,4.947E3,3.61E-1,4.498765E0,2.3599864E2,-5.8582075E-2,7.331E1,1.71E1,1.200388E-2,9.034191E0,9.5E0,5.383E3,1.8832E0,9.91E-1,1.8555576E0,9.3E-1,9.66E-1,6.26E1,2.764E1,1.4889E1,5.216E1,2.65E0,-4.1651554E-2,-6.0369354E-2,-2.9976716E-2,7.1946345E-2,-5.9793856E-2,-1.9576898E-2,4.1946143E-2,-2.8318737E-2,3.8735636E-2,-5.189659E-2,-4.514012E-2,7.428058E-2,-3.646662E-6,-5.1340964E-2,5.7934504E-2,-1.2397898E-2,-5.4175027E-2,1.16481325E-2,-6.4748645E-2,1.0155051E-2,1.7648244E-2,-4.0089738E-2,1.0367286E-2,-3.337164E-2,-3.2801673E-2,-5.877754E-2],"split_indices":[14,7,0,7,4,1,8,15,4,11,8,1,0,0,0,6,7,0,0,7,8,2,1,0,4,1,7,4,11,4,6,0,0,0,0,0,0,0,0,0,0,0,0,0,0,0,0,0,0,0,0,0,0,0,0,0,0],"split_type":[0,0,0,0,0,0,0,0,0,0,0,0,0,0,0,0,0,0,0,0,0,0,0,0,0,0,0,0,0,0,0,0,0,0,0,0,0,0,0,0,0,0,0,0,0,0,0,0,0,0,0,0,0,0,0,0,0],"sum_hessian":[1.4296934E3,1.2375096E3,1.921837E2,2.0388637E2,1.0336233E3,1.1741145E2,8.647492E1,9.267337E2,1.0688955E2,7.19425E1,4.5468952E1,5.6997055E1,2.9477867E1,9.149102E2,1.182349E1,4.1098415E1,6.579114E1,1.1147047E0,7.082779E1,6.1369634E0,3.933199E1,2.6612444E1,3.0384611E1,4.712977E0,2.476489E1,8.9537665E2,1.9533545E1,1.6079245E1,2.5019169E1,2.1689286E0,6.362221E1,3.6333027E1,3.4494762E1,3.1794224E0,2.9575408E0,7.640876E0,3.1691114E1,5.4597497E0,2.1152695E1,2.7283333E1,3.1012778E0,1.9323407E0,2.780636E0,3.9901247E0,2.0774765E1,8.678442E2,2.7532469E1,1.2713475E1,6.8200693E0,1.4963382E1,1.1158624E0,1.5601476E1,9.417694E0,1.1215346E0,1.047394E0,4.672637E0,5.8949574E1],"tree_param":{"num_deleted":"0","num_feature":"16","num_nodes":"57","size_leaf_vector":"1"}},{"base_weights":[1.697199E-2,-2.218722E-1,7.812197E-2,-4.0178707E-1,7.5014144E-1,-5.706527E-1,8.668706E-1,7.957563E-2,6.114636E-1,-6.0184145E-1,8.5679494E-2,2.3635557E-2,8.7408885E-2,-4.585793E-1,7.17803E-1,-3.143776E-1,-6.0614824E-1,-5.816905E-2,-1.2279065E-2,7.3884293E-3,7.48902E-2,-4.4386037E-2,4.5099918E-2,-6.081233E-2,-7.2503174E-3],"categories":[],"categories_nodes":[],"categories_segments":[],"categories_sizes":[],"default_left":[0,0,0,0,0,0,0,0,0,0,0,0,0,0,0,0,0,0,0,0,0,0,0,0,0],"id":26,"left_children":[1,3,-1,5,7,9,11,-1,13,15,-1,-1,-1,17,19,21,23,-1,-1,-1,-1,-1,-1,-1,-1],"loss_changes":[2.3097813E2,1.6891006E2,0E0,1.749244E2,4.6819305E-1,3.2533142E1,2.3051453E-1,0E0,5.0713882E0,6.8148804E-1,0E0,0E0,0E0,1.0953659E-1,7.116051E-1,1.4364569E0,6.86203E-1,0E0,0E0,0E0,0E0,0E0,0E0,0E0,0E0],"parents":[2147483647,0,0,1,1,3,3,4,4,5,5,6,6,8,8,9,9,13,13,14,14,15,15,16,16],"right_children":[2,4,-1,6,8,10,12,-1,14,16,-1,-1,-1,18,20,22,24,-1,-1,-1,-1,-1,-1,-1,-1],"split_conditions":[1E0,1E0,7.812197E-2,1E0,1.0222E3,1E0,1.0266E1,7.957563E-2,1.1766E4,7.4E0,8.5679494E-2,2.3635557E-2,8.7408885E-2,6.038E3,1.19E-1,5.991E0,3.0222E4,-5.816905E-2,-1.2279065E-2,7.3884293E-3,7.48902E-2,-4.4386037E-2,4.5099918E-2,-6.081233E-2,-7.2503174E-3],"split_indices":[14,13,0,12,7,15,11,0,3,7,0,0,0,8,1,2,3,0,0,0,0,0,0,0,0],"split_type":[0,0,0,0,0,0,0,0,0,0,0,0,0,0,0,0,0,0,0,0,0,0,0,0,0],"sum_hessian":[1.2634337E3,9.6314075E2,3.0029297E2,8.1320685E2,1.4993388E2,7.1816516E2,9.504172E1,1.0925787E2,4.0676018E1,7.0337524E2,1.4789899E1,1.4576778E0,9.3584045E1,3.377492E0,3.7298523E1,1.1474648E1,6.919006E2,1.9355456E0,1.4419463E0,1.8739213E0,3.5424603E1,1.0173603E1,1.3010452E0,6.8921027E2,2.6903398E0],"tree_param":{"num_deleted":"0","num_feature":"16","num_nodes":"25","size_leaf_vector":"1"}},{"base_weights":[-2.1751525E-1,-1.43792E-1,-6.004342E-2,1.1209585E-1,-2.407986E-1,1.4406414E-1,-5.6402754E-2,-1.935557E-1,-5.9466537E-2,3.7229132E-2,3.961081E-1,1.9165705E-1,-2.442593E-1,1.9552897E-1,-3.1766835E-1,5.6502455E-1,2.215478E-1,3.0889504E-2,6.208263E-1,-3.1200448E-1,1.278016E-2,3.846046E-2,8.273405E-3,-4.6699297E-2,1.7362341E-2,8.848841E-2,4.3962684E-2,5.6788415E-2,2.7218878E-3,4.8568856E-2,-1.2084938E-2,2.472842E-2,1.278831E-1,-4.083092E-2,-1.11276675E-2,-9.470827E-3,4.3669466E-2],"categories":[],"categories_nodes":[],"categories_segments":[],"categories_sizes":[],"default_left":[0,0,0,0,0,0,0,0,0,0,0,0,0,0,0,0,0,0,0,0,0,0,0,0,0,0,0,0,0,0,0,0,0,0,0,0,0],"id":27,"left_children":[1,3,-1,5,7,9,-1,11,-1,13,15,17,19,21,23,25,27,29,31,33,35,-1,-1,-1,-1,-1,-1,-1,-1,-1,-1,-1,-1,-1,-1,-1,-1],"loss_changes":[3.35856E1,2.4887447E1,0E0,6.046596E0,1.2030788E1,7.1027412E0,0E0,1.2594753E1,0E0,1.0553263E1,2.1919317E0,5.175278E0,9.897369E0,2.7355042E0,4.3348093E0,1.1869755E0,2.6962528E0,3.9109778E0,4.713727E0,8.647453E0,5.4850783E0,0E0,0E0,0E0,0E0,0E0,0E0,0E0,0E0,0E0,0E0,0E0,0E0,0E0,0E0,0E0,0E0],"parents":[2147483647,0,0,1,1,3,3,4,4,5,5,7,7,9,9,10,10,11,11,12,12,13,13,14,14,15,15,16,16,17,17,18,18,19,19,20,20],"right_children":[2,4,-1,6,8,10,-1,12,-1,14,16,18,20,22,24,26,28,30,32,34,36,-1,-1,-1,-1,-1,-1,-1,-1,-1,-1,-1,-1,-1,-1,-1,-1],"split_conditions":[1E0,1.878E2,-6.004342E-2,1E0,1E0,1.4316E1,-5.6402754E-2,1.7645E0,-5.9466537E-2,1.143E2,1.037E3,9.12E-1,6.2596542E1,5.14E1,6.4774E0,2.503E0,1.796E0,2.731E2,1.1206E3,1.5342E1,2.5009E3,3.846046E-2,8.273405E-3,-4.6699297E-2,1.7362341E-2,8.848841E-2,4.3962684E-2,5.6788415E-2,2.7218878E-3,4.8568856E-2,-1.2084938E-2,2.472842E-2,1.278831E-1,-4.083092E-2,-1.11276675E-2,-9.470827E-3,4.3669466E-2],"split_indices":[14,3,0,15,13,11,0,2,0,3,5,1,0,3,2,2,2,3,3,11,3,0,0,0,0,0,0,0,0,0,0,0,0,0,0,0,0],"split_type":[0,0,0,0,0,0,0,0,0,0,0,0,0,0,0,0,0,0,0,0,0,0,0,0,0,0,0,0,0,0,0,0,0,0,0,0,0],"sum_hessian":[1.1917701E3,1.0005166E3,1.9125359E2,2.7498767E2,7.2552893E2,2.6332416E2,1.1663501E1,6.4144055E2,8.408841E1,1.85741E2,7.758317E1,7.42858E1,5.671547E2,1.2875824E2,5.6982765E1,3.829219E1,3.9290974E1,5.482153E1,1.9464268E1,4.4868558E2,1.18469154E2,4.7210526E1,8.154771E1,4.373829E1,1.3244478E1,9.078498E0,2.9213694E1,1.3431263E1,2.5859713E1,1.3164234E1,4.1657295E1,1.3293501E1,6.1707664E0,3.0251263E2,1.4617294E2,9.512556E1,2.3343597E1],"tree_param":{"num_deleted":"0","num_feature":"16","num_nodes":"37","size_leaf_vector":"1"}},{"base_weights":[1.765479E-1,2.930384E-1,-5.9254523E-2,3.6172372E-1,-5.2314305E-1,-1.23155154E-1,4.9465108E-1,-1.5362191E-1,-5.6122017E-1,-3.4019536E-1,5.6335066E-2,5.3551733E-1,-6.3853574E-1,2.1160613E-1,-5.145799E-2,-4.119831E-1,-6.0159575E-2,-4.6222717E-1,-1.3846967E-1,1.134639E-1,-5.8178782E-2,5.683494E-1,5.073465E-2,-4.272565E-3,-6.639292E-2,-3.792108E-2,5.2370614E-1,-5.356267E-1,2.785434E-1,-3.52952E-2,-5.8046352E-2,-4.5563276E-3,-4.5961853E-2,2.9846162E-2,-1.1690264E-3,6.0821958E-2,2.0280357E-2,2.5461225E-2,-4.991252E-2,7.522297E-2,-1.6043865E-3,-2.487585E-3,-5.8527898E-2,7.476681E-2,-3.4220066E-2],"categories":[],"categories_nodes":[],"categories_segments":[],"categories_sizes":[],"default_left":[0,0,0,0,0,0,0,0,0,0,0,0,0,0,0,0,0,0,0,0,0,0,0,0,0,0,0,0,0,0,0,0,0,0,0,0,0,0,0,0,0,0,0,0,0],"id":28,"left_children":[1,3,-1,5,7,9,11,13,15,17,19,21,23,25,-1,27,-1,29,31,33,-1,35,37,-1,-1,-1,39,41,43,-1,-1,-1,-1,-1,-1,-1,-1,-1,-1,-1,-1,-1,-1,-1,-1],"loss_changes":[1.2360196E2,6.7299416E1,0E0,7.1268555E1,1.2269917E0,9.31059E0,4.050493E1,1.4398366E0,2.5971985E-1,2.5971575E0,4.856386E0,1.330336E1,4.3527126E-1,1.2545861E0,0E0,1.9515295E0,0E0,6.5986156E-1,1.2373998E0,2.8153033E0,0E0,1.1308914E1,6.206376E0,0E0,0E0,0E0,5.260854E-1,4.4816017E-1,1.380988E0,0E0,0E0,0E0,0E0,0E0,0E0,0E0,0E0,0E0,0E0,0E0,0E0,0E0,0E0,0E0,0E0],"parents":[2147483647,0,0,1,1,3,3,4,4,5,5,6,6,7,7,8,8,9,9,10,10,11,11,12,12,13,13,15,15,17,17,18,18,19,19,21,21,22,22,26,26,27,27,28,28],"right_children":[2,4,-1,6,8,10,12,14,16,18,20,22,24,26,-1,28,-1,30,32,34,-1,36,38,-1,-1,-1,40,42,44,-1,-1,-1,-1,-1,-1,-1,-1,-1,-1,-1,-1,-1,-1,-1,-1],"split_conditions":[1E0,1E0,-5.9254523E-2,1.43E1,2.29E-1,1.13E1,1E0,1.4169E1,2.1505234E0,4.75E-1,1E0,9.5E-1,1.0624E1,4.004E0,-5.145799E-2,1.7142748E0,-6.0159575E-2,1.35420885E1,1E0,5.573E3,-5.8178782E-2,6.745104E1,3.53E1,-4.272565E-3,-6.639292E-2,-3.792108E-2,3.5755143E0,1.82E1,2.0632E4,-3.52952E-2,-5.8046352E-2,-4.5563276E-3,-4.5961853E-2,2.9846162E-2,-1.1690264E-3,6.0821958E-2,2.0280357E-2,2.5461225E-2,-4.991252E-2,7.522297E-2,-1.6043865E-3,-2.487585E-3,-5.8527898E-2,7.476681E-2,-3.4220066E-2],"split_indices":[14,13,0,7,1,7,12,11,0,1,12,1,11,9,0,0,0,0,12,8,0,0,7,0,0,0,0,7,3,0,0,0,0,0,0,0,0,0,0,0,0,0,0,0,0],"split_type":[0,0,0,0,0,0,0,0,0,0,0,0,0,0,0,0,0,0,0,0,0,0,0,0,0,0,0,0,0,0,0,0,0,0,0,0,0,0,0,0,0,0,0,0,0],"sum_hessian":[1.3766709E3,1.1961199E3,1.8055101E2,1.103788E3,9.233191E1,2.3750713E2,8.662808E2,9.095794E0,8.3236115E1,1.0710276E2,1.3040437E2,8.3663654E2,2.9644285E1,4.726821E0,4.3689733E0,2.0109768E1,6.312635E1,6.592859E1,4.117417E1,1.2044367E2,9.960695E0,7.8340753E2,5.3228992E1,1.3214514E0,2.8322834E1,1.5595347E0,3.1672864E0,1.7246061E1,2.8637064E0,3.6333733E1,2.9594856E1,3.2821106E1,8.353067E0,4.8043297E1,7.2400375E1,7.057657E2,7.764184E1,3.9222855E1,1.4006139E1,1.9486068E0,1.2186794E0,1.6610091E0,1.55850525E1,1.5145905E0,1.3491158E0],"tree_param":{"num_deleted":"0","num_feature":"16","num_nodes":"45","size_leaf_vector":"1"}},{"base_weights":[1.259595E-2,-2.2587916E-1,7.447462E-2,-3.9907908E-1,7.1195793E-1,-5.592054E-1,8.262529E-1,7.5974576E-2,5.3985816E-1,-5.9014815E-1,8.115908E-2,2.1752188E-2,8.3377995E-2,6.8086433E-1,-7.017011E-2,2.5257716E-2,-5.9328455E-1,1.2489214E-2,7.151044E-2,-6.455763E-2,5.594028E-2,1.3559096E-2,-5.9600264E-2],"categories":[],"categories_nodes":[],"categories_segments":[],"categories_sizes":[],"default_left":[0,0,0,0,0,0,0,0,0,0,0,0,0,0,0,0,0,0,0,0,0,0,0],"id":29,"left_children":[1,3,-1,5,7,9,11,-1,13,15,-1,-1,-1,17,19,-1,21,-1,-1,-1,-1,-1,-1],"loss_changes":[2.1227348E2,1.4925296E2,0E0,1.5248004E2,7.686157E-1,2.956926E1,2.3077393E-1,0E0,3.0243578E0,1.9240875E0,0E0,0E0,0E0,4.475336E-1,3.043129E0,0E0,1.4063873E0,0E0,0E0,0E0,0E0,0E0,0E0],"parents":[2147483647,0,0,1,1,3,3,4,4,5,5,6,6,8,8,9,9,13,13,14,14,16,16],"right_children":[2,4,-1,6,8,10,12,-1,14,16,-1,-1,-1,18,20,-1,22,-1,-1,-1,-1,-1,-1],"split_conditions":[1E0,1E0,7.447462E-2,1E0,1.0222E3,1E0,1.0266E1,7.5974576E-2,1.419E3,4.4527707E-1,8.115908E-2,2.1752188E-2,8.3377995E-2,1.357E1,2.222E1,2.5257716E-2,4.9E0,1.2489214E-2,7.151044E-2,-6.455763E-2,5.594028E-2,1.3559096E-2,-5.9600264E-2],"split_indices":[14,13,0,12,7,15,11,0,5,0,0,0,0,4,4,0,7,0,0,0,0,0,0],"split_type":[0,0,0,0,0,0,0,0,0,0,0,0,0,0,0,0,0,0,0,0,0,0,0],"sum_hessian":[1.2138096E3,9.1610754E2,2.97702E2,7.7378015E2,1.423274E2,6.848302E2,8.894995E1,1.0872311E2,3.360428E1,6.7026984E2,1.4560395E1,1.4516344E0,8.749832E1,2.7200783E1,6.4034967E0,2.190408E0,6.680794E2,1.8476192E0,2.5353163E1,3.332394E0,3.0711026E0,2.3005188E0,6.657789E2],"tree_param":{"num_deleted":"0","num_feature":"16","num_nodes":"23","size_leaf_vector":"1"}},{"base_weights":[-1.9803049E-1,1.18745856E-1,-3.54367E-1,2.3013131E-1,-5.8884233E-2,-3.0275166E-1,-5.8293242E-2,-2.0695917E-1,2.683932E-1,-3.6691326E-1,1.1581304E-1,6.440173E-2,-2.8124806E-1,2.889285E-1,-5.286182E-2,2.5737039E-3,-4.0074763E-1,-1.8269652E-1,5.437465E-1,-1.3009532E-1,-4.994344E-1,3.6445504E-1,1.150768E-1,1.6068164E-1,-5.4988533E-2,3.4356713E-1,-4.1634393E-1,5.363936E-1,-3.2544652E-1,8.124187E-1,4.5542777E-2,-2.803258E-2,2.0923426E-2,-2.7248703E-3,-5.844928E-2,-2.6493449E-2,3.890006E-2,6.909528E-2,4.6691927E-3,3.0849878E-2,-1.6365772E-2,5.5029E-2,-3.9694306E-2,-2.4129245E-2,-4.5887437E-2,7.537329E-2,-1.3429499E-2,-5.0240006E-2,-4.62331E-3,4.4989374E-2,1.1982826E-1,2.8659735E-2,-4.887575E-2],"categories":[],"categories_nodes":[],"categories_segments":[],"categories_sizes":[],"default_left":[0,0,0,0,0,0,0,0,0,0,0,0,0,0,0,0,0,0,0,0,0,0,0,0,0,0,0,0,0,0,0,0,0,0,0,0,0,0,0,0,0,0,0,0,0,0,0,0,0,0,0,0,0],"id":30,"left_children":[1,3,5,7,-1,9,-1,11,13,15,17,-1,19,21,-1,23,25,27,29,31,33,35,37,39,-1,41,43,45,47,49,51,-1,-1,-1,-1,-1,-1,-1,-1,-1,-1,-1,-1,-1,-1,-1,-1,-1,-1,-1,-1,-1,-1],"loss_changes":[5.6992523E1,3.0143982E1,8.910141E0,5.5690956E0,0E0,1.6972584E1,0E0,1.8944125E0,5.1213837E0,6.8374863E0,1.09000435E1,0E0,7.8000164E-1,3.8525524E0,0E0,4.182284E0,5.958786E0,5.364117E0,4.6472073E0,8.9917064E-1,3.910613E-1,3.2902966E0,3.5628407E0,1.8346419E0,0E0,1.8763082E0,3.5459518E0,1.3768826E0,2.0916414E0,2.6328373E0,1.8556038E0,0E0,0E0,0E0,0E0,0E0,0E0,0E0,0E0,0E0,0E0,0E0,0E0,0E0,0E0,0E0,0E0,0E0,0E0,0E0,0E0,0E0,0E0],"parents":[2147483647,0,0,1,1,2,2,3,3,5,5,7,7,8,8,9,9,10,10,12,12,13,13,15,15,16,16,17,17,18,18,19,19,20,20,21,21,22,22,23,23,25,25,26,26,27,27,28,28,29,29,30,30],"right_children":[2,4,6,8,-1,10,-1,12,14,16,18,-1,20,22,-1,24,26,28,30,32,34,36,38,40,-1,42,44,46,48,50,52,-1,-1,-1,-1,-1,-1,-1,-1,-1,-1,-1,-1,-1,-1,-1,-1,-1,-1,-1,-1,-1,-1],"split_conditions":[1.59E1,1E0,1E0,3.11E2,-5.8884233E-2,2.1115E3,-5.8293242E-2,6E-3,1E0,3.969E0,7.74E-1,6.440173E-2,1.18E1,1.33E1,-5.286182E-2,1E0,1.013E0,3.25E2,7.78E2,4.89E-1,4.335E0,1.166E1,1.536E0,3.232E0,-5.4988533E-2,1E0,2.01E1,2.386E2,7.32E3,5E2,1.1766E4,-2.803258E-2,2.0923426E-2,-2.7248703E-3,-5.844928E-2,-2.6493449E-2,3.890006E-2,6.909528E-2,4.6691927E-3,3.0849878E-2,-1.6365772E-2,5.5029E-2,-3.9694306E-2,-2.4129245E-2,-4.5887437E-2,7.537329E-2,-1.3429499E-2,-5.0240006E-2,-4.62331E-3,4.4989374E-2,1.1982826E-1,2.8659735E-2,-4.887575E-2],"split_indices":[7,14,13,5,0,3,0,1,15,9,1,0,7,7,0,14,2,5,5,1,9,11,2,10,0,14,7,7,3,5,3,0,0,0,0,0,0,0,0,0,0,0,0,0,0,0,0,0,0,0,0,0,0],"split_type":[0,0,0,0,0,0,0,0,0,0,0,0,0,0,0,0,0,0,0,0,0,0,0,0,0,0,0,0,0,0,0,0,0,0,0,0,0,0,0,0,0,0,0,0,0,0,0,0,0,0,0,0,0],"sum_hessian":[1.1489633E3,3.7974554E2,7.692177E2,3.2868082E2,5.106474E1,6.2940753E2,1.398102E2,2.6101164E1,3.0257965E2,5.4585675E2,8.355076E1,1.4798979E0,2.4621265E1,2.9560086E2,6.978785E0,4.5869076E1,4.9998767E2,4.9555714E1,3.3995045E1,1.548795E1,9.133315E0,2.0531105E2,9.028982E1,3.6214127E1,9.654948E0,9.8300905E0,4.901576E2,7.751362E0,4.180435E1,2.167527E1,1.2319775E1,1.0855713E1,4.632237E0,1.5956602E0,7.537655E0,7.33877E0,1.9797227E2,8.617458E0,8.167236E1,2.4910189E1,1.1303939E1,7.885602E0,1.9444889E0,9.711486E1,3.9304272E2,5.7607484E0,1.9906135E0,2.5098595E1,1.6705755E1,1.2292356E1,9.382915E0,8.809079E0,3.510696E0],"tree_param":{"num_deleted":"0","num_feature":"16","num_nodes":"53","size_leaf_vector":"1"}},{"base_weights":[1.6143046E-1,2.6871336E-1,-5.8272984E-2,3.3194223E-1,-5.122717E-1,3.7038642E-1,-1.3917379E-1,-1.0140558E-1,-5.508236E-1,3.967915E-1,-2.1307372E-1,-4.691505E-1,9.050682E-2,4.0446317E-1,-5.1319804E-2,-5.9159078E-2,-4.19949E-1,6.544335E-2,4.498241E-1,3.4573585E-1,-3.3265868E-1,-5.976334E-1,-2.5977054E-1,2.2574349E-1,-5.6084186E-1,6.172699E-3,6.689912E-2,-5.7569683E-2,-1.4214171E-1,2.4409002E-2,-2.010668E-2,4.7999766E-2,-3.241698E-4,-4.6380486E-2,5.922311E-2,1.6321067E-2,-4.16738E-2,-6.409375E-2,3.5981208E-3,2.9659916E-2,-5.6881275E-2,-1.1473831E-2,4.004717E-2,-1.8631073E-3,-6.361425E-2,7.348829E-2,-3.899366E-2],"categories":[],"categories_nodes":[],"categories_segments":[],"categories_sizes":[],"default_left":[0,0,0,0,0,0,0,0,0,0,0,0,0,0,0,0,0,0,0,0,0,0,0,0,0,0,0,0,0,0,0,0,0,0,0,0,0,0,0,0,0,0,0,0,0,0,0],"id":31,"left_children":[1,3,-1,5,7,9,11,13,15,17,19,21,23,25,-1,-1,27,29,31,33,35,37,39,41,43,-1,-1,-1,45,-1,-1,-1,-1,-1,-1,-1,-1,-1,-1,-1,-1,-1,-1,-1,-1,-1,-1],"loss_changes":[1.08196945E2,5.86099E1,0E0,1.9891487E1,1.3543472E0,1.5691925E1,6.361161E0,2.0538034E0,1.846199E-1,1.7007553E1,3.0895538E0,7.6955795E-1,4.5304604E0,3.6998528E-1,0E0,0E0,9.014292E-1,6.4735594E0,1.1424759E1,1.938276E0,1.6179485E0,5.865116E-1,2.720643E0,2.5512831E0,3.5081148E-1,0E0,0E0,0E0,2.3492541E0,0E0,0E0,0E0,0E0,0E0,0E0,0E0,0E0,0E0,0E0,0E0,0E0,0E0,0E0,0E0,0E0,0E0,0E0],"parents":[2147483647,0,0,1,1,3,3,4,4,5,5,6,6,7,7,8,8,9,9,10,10,11,11,12,12,13,13,16,16,17,17,18,18,19,19,20,20,21,21,22,22,23,23,24,24,28,28],"right_children":[2,4,-1,6,8,10,12,14,16,18,20,22,24,26,-1,-1,28,30,32,34,36,38,40,42,44,-1,-1,-1,46,-1,-1,-1,-1,-1,-1,-1,-1,-1,-1,-1,-1,-1,-1,-1,-1,-1,-1],"split_conditions":[1E0,1E0,-5.8272984E-2,6.274E3,1.36E-1,1.167E1,1.3127E1,1.4169E1,1.419E3,1.14E0,3.53E-1,3.23E0,8.62E0,1.4638E4,-5.1319804E-2,-5.9159078E-2,7.32E3,1.415E1,1.0068E1,6.1E-2,1.4474E0,7.87E-1,6.7E3,3.681E0,1.3274E1,6.172699E-3,6.689912E-2,-5.7569683E-2,1.674E1,2.4409002E-2,-2.010668E-2,4.7999766E-2,-3.241698E-4,-4.6380486E-2,5.922311E-2,1.6321067E-2,-4.16738E-2,-6.409375E-2,3.5981208E-3,2.9659916E-2,-5.6881275E-2,-1.1473831E-2,4.004717E-2,-1.8631073E-3,-6.361425E-2,7.348829E-2,-3.899366E-2],"split_indices":[14,13,0,8,1,4,11,11,5,4,1,4,2,3,0,0,3,11,2,1,2,1,8,2,11,0,0,0,4,0,0,0,0,0,0,0,0,0,0,0,0,0,0,0,0,0,0],"split_type":[0,0,0,0,0,0,0,0,0,0,0,0,0,0,0,0,0,0,0,0,0,0,0,0,0,0,0,0,0,0,0,0,0,0,0,0,0,0,0,0,0,0,0,0,0,0,0],"sum_hessian":[1.3522842E3,1.1824531E3,1.6983109E2,1.0944232E3,8.802996E1,1.0120512E3,8.237198E1,7.8627887E0,8.0167175E1,9.6853894E2,4.3512264E1,3.3377167E1,4.899481E1,3.5363448E0,4.326444E0,5.844225E1,2.1724924E1,1.3393648E2,8.346024E2,7.3368254E0,3.617544E1,1.9535313E1,1.3841855E1,4.111227E1,7.8825383E0,2.0777073E0,1.4586374E0,1.3233502E1,8.491421E0,8.0236565E1,5.369992E1,7.8243396E2,5.2168488E1,1.5067508E0,5.8300743E0,5.108168E0,3.1067272E1,1.8274775E1,1.2605382E0,4.957362E0,8.884493E0,1.4059244E1,2.7053026E1,1.1133261E0,6.7692122E0,1.4376019E0,7.053819E0],"tree_param":{"num_deleted":"0","num_feature":"16","num_nodes":"47","size_leaf_vector":"1"}},{"base_weights":[1.469973E-2,-2.1016991E-1,7.138865E-2,-3.8724887E-1,6.949993E-1,-5.426088E-1,7.785621E-1,7.39167E-2,5.518454E-1,-5.5092514E-1,4.672834E-2,1.1969949E-2,7.8822486E-2,-4.58917E-1,6.7606294E-1,3.6760744E-2,-5.537552E-1,-1.9991408E-1,5.826331E-2,-5.692626E-2,-1.1620142E-2,9.006657E-3,6.964199E-2,-5.6857284E-2,-3.8837563E-2,-3.2686587E-2,2.0399693E-2],"categories":[],"categories_nodes":[],"categories_segments":[],"categories_sizes":[],"default_left":[0,0,0,0,0,0,0,0,0,0,0,0,0,0,0,0,0,0,0,0,0,0,0,0,0,0,0],"id":32,"left_children":[1,3,-1,5,7,9,11,-1,13,15,17,-1,-1,19,21,-1,23,25,-1,-1,-1,-1,-1,-1,-1,-1,-1],"loss_changes":[1.8146225E2,1.4025331E2,0E0,1.3283643E2,4.9785614E-1,3.1904144E0,4.5558167E-1,0E0,5.046586E0,1.8589172E0,1.4259208E0,0E0,0E0,1.1250973E-1,3.428545E-1,0E0,1.3358612E0,4.527403E-1,0E0,0E0,0E0,0E0,0E0,0E0,0E0,0E0,0E0],"parents":[2147483647,0,0,1,1,3,3,4,4,5,5,6,6,8,8,9,9,10,10,13,13,14,14,16,16,17,17],"right_children":[2,4,-1,6,8,10,12,-1,14,16,18,-1,-1,20,22,-1,24,26,-1,-1,-1,-1,-1,-1,-1,-1,-1],"split_conditions":[1E0,1E0,7.138865E-2,1E0,1.0222E3,7.6732E3,3.598E3,7.39167E-2,1.1766E4,4.9E0,3.73E1,1.1969949E-2,7.8822486E-2,6.297E3,2.587E0,3.6760744E-2,1.479E3,7.516E3,5.826331E-2,-5.692626E-2,-1.1620142E-2,9.006657E-3,6.964199E-2,-5.6857284E-2,-3.8837563E-2,-3.2686587E-2,2.0399693E-2],"split_indices":[14,13,0,12,7,6,8,0,3,7,7,0,0,8,2,0,5,8,0,0,0,0,0,0,0,0,0],"split_type":[0,0,0,0,0,0,0,0,0,0,0,0,0,0,0,0,0,0,0,0,0,0,0,0,0,0,0],"sum_hessian":[1.1521959E3,8.723376E2,2.7985834E2,7.3008307E2,1.4225455E2,6.447024E2,8.5380646E1,1.0553124E2,3.6723312E1,6.3579565E2,8.90676E0,1.4275739E0,8.395307E1,3.7242785E0,3.2999035E1,1.5570105E0,6.3423865E2,6.5288916E0,2.3778687E0,2.3171728E0,1.4071056E0,1.2899793E0,3.1709055E1,5.798476E2,5.4391018E1,5.112689E0,1.4162029E0],"tree_param":{"num_deleted":"0","num_feature":"16","num_nodes":"27","size_leaf_vector":"1"}},{"base_weights":[-1.9005443E-1,-1.2026279E-1,-5.8080222E-2,-7.882516E-2,-5.7683963E-2,1.8464759E-1,-1.3413E-1,2.3127076E-1,-3.754927E-1,-1.8879674E-1,1.6932403E-1,7.096586E-2,4.6612033E-1,1.8230332E-2,-4.4347894E-1,1.7736425E-1,-2.249685E-1,-1.3473822E-1,3.7361607E-1,1.7312625E-2,-4.2208448E-2,5.203358E-2,-4.3998033E-2,-5.908679E-2,-4.321962E-3,-9.5067965E-3,4.3133225E-2,-1.3712264E-2,-3.5734326E-2,-2.376266E-2,5.2671183E-2,-4.7557E-2,4.6319555E-2],"categories":[],"categories_nodes":[],"categories_segments":[],"categories_sizes":[],"default_left":[0,0,0,0,0,0,0,0,0,0,0,0,0,0,0,0,0,0,0,0,0,0,0,0,0,0,0,0,0,0,0,0,0],"id":33,"left_children":[1,3,-1,5,-1,7,9,11,13,15,17,19,21,-1,23,25,27,29,31,-1,-1,-1,-1,-1,-1,-1,-1,-1,-1,-1,-1,-1,-1],"loss_changes":[3.0053417E1,1.770969E1,0E0,1.2578441E1,0E0,4.0012546E0,1.185392E1,5.1995535E0,5.320662E-1,8.044102E0,6.840505E0,4.293323E0,2.9900103E0,0E0,6.1732435E-1,3.8389163E0,6.3518524E0,3.1647892E0,5.214078E0,0E0,0E0,0E0,0E0,0E0,0E0,0E0,0E0,0E0,0E0,0E0,0E0,0E0,0E0],"parents":[2147483647,0,0,1,1,3,3,5,5,6,6,7,7,8,8,9,9,10,10,11,11,12,12,14,14,15,15,16,16,17,17,18,18],"right_children":[2,4,-1,6,-1,8,10,12,14,16,18,20,22,-1,24,26,28,30,32,-1,-1,-1,-1,-1,-1,-1,-1,-1,-1,-1,-1,-1,-1],"split_conditions":[1E0,1E0,-5.8080222E-2,1.18E0,-5.7683963E-2,2.818E2,5.71E0,1.415E1,6.182E-1,1.68668E0,6.25E-1,1.019E2,1E0,1.8230332E-2,8.919012E0,5.201E3,5.073E2,1.5536E1,1.2706E1,1.7312625E-2,-4.2208448E-2,5.203358E-2,-4.3998033E-2,-5.908679E-2,-4.321962E-3,-9.5067965E-3,4.3133225E-2,-1.3712264E-2,-3.5734326E-2,-2.376266E-2,5.2671183E-2,-4.7557E-2,4.6319555E-2],"split_indices":[14,13,0,4,0,3,4,11,2,2,1,3,15,0,0,8,3,11,11,0,0,0,0,0,0,0,0,0,0,0,0,0,0],"split_type":[0,0,0,0,0,0,0,0,0,0,0,0,0,0,0,0,0,0,0,0,0,0,0,0,0,0,0,0,0,0,0,0,0],"sum_hessian":[1.1035925E3,9.3746014E2,1.6613245E2,8.605332E2,7.692693E1,1.4888847E2,7.116447E2,1.3799002E2,1.0898453E1,6.033331E2,1.0831162E2,8.2784615E1,5.5205402E1,1.0013514E0,9.897101E0,5.3891773E1,5.4944135E2,4.366395E1,6.4647675E1,6.911318E1,1.3671435E1,5.2490437E1,2.7149627E0,6.8854384E0,3.011663E0,2.6302584E1,2.758919E1,3.3149332E2,2.1794801E2,3.8340797E1,5.3231516E0,5.7576833E0,5.8889988E1],"tree_param":{"num_deleted":"0","num_feature":"16","num_nodes":"33","size_leaf_vector":"1"}},{"base_weights":[1.5588385E-1,2.373827E-1,-5.3318214E-1,-2.570031E-1,3.5092866E-1,-5.550847E-1,-1.4483704E-1,-4.3126014E-1,-4.173279E-2,4.328735E-1,-1.4382099E-1,-5.723853E-2,-4.0174013E-1,7.0026144E-2,-4.9586006E-2,-4.498731E-1,3.218356E-1,1.8798377E-1,-1.7710851E-1,4.8951572E-1,3.7108857E-2,2.0194644E-1,-3.7022772E-1,5.3573467E-2,-5.4750938E-2,-4.934952E-1,-2.4051893E-1,-3.491802E-2,7.601252E-2,3.744484E-1,-4.9290663E-1,-2.7520606E-1,6.982595E-2,5.182281E-1,-1.7775637E-1,2.7949458E-1,-3.044236E-1,-1.0642278E-1,4.3796515E-1,-2.6607284E-1,-5.865282E-1,-1.5765978E-3,-5.0105114E-2,1.5254959E-3,-4.486612E-2,5.534413E-2,-2.0566825E-2,-6.011003E-2,1.2290056E-2,-3.3253994E-2,2.6083475E-2,-5.1686563E-2,2.2832938E-2,4.0006176E-2,6.3161604E-2,9.928186E-3,-5.6024965E-2,-8.025601E-3,5.059535E-2,2.9292587E-2,-3.9833277E-2,-4.3727383E-2,1.1371349E-2,5.2384775E-2,-3.9331924E-2,-4.458668E-2,-4.826549E-3,9.937418E-3,-6.187562E-2],"categories":[],"categories_nodes":[],"categories_segments":[],"categories_sizes":[],"default_left":[0,0,0,0,0,0,0,0,0,0,0,0,0,0,0,0,0,0,0,0,0,0,0,0,0,0,0,0,0,0,0,0,0,0,0,0,0,0,0,0,0,0,0,0,0,0,0,0,0,0,0,0,0,0,0,0,0,0,0,0,0,0,0,0,0,0,0,0,0],"id":34,"left_children":[1,3,5,7,9,11,13,15,17,19,21,-1,23,-1,-1,25,27,29,31,33,35,37,39,-1,-1,41,43,-1,-1,45,47,49,51,53,55,57,59,61,63,65,67,-1,-1,-1,-1,-1,-1,-1,-1,-1,-1,-1,-1,-1,-1,-1,-1,-1,-1,-1,-1,-1,-1,-1,-1,-1,-1,-1,-1],"loss_changes":[7.300645E1,6.527456E1,1.0897026E0,8.139399E0,3.8363983E1,1.1458588E-1,2.9273405E0,1.8278522E0,3.092982E0,1.8156296E1,1.0642505E1,0E0,2.5509686E0,0E0,0E0,9.55204E-1,1.2885776E0,4.878023E0,1.531283E0,1.3678848E1,8.577668E0,3.9813535E0,1.6897068E0,0E0,0E0,3.3994293E-1,1.1901886E0,0E0,0E0,3.1861901E0,6.32138E-1,1.4659317E0,1.8425477E0,8.860474E0,3.2346232E0,4.9715357E0,2.532402E0,1.8154266E0,2.4063287E0,2.2157497E0,6.317711E-1,0E0,0E0,0E0,0E0,0E0,0E0,0E0,0E0,0E0,0E0,0E0,0E0,0E0,0E0,0E0,0E0,0E0,0E0,0E0,0E0,0E0,0E0,0E0,0E0,0E0,0E0,0E0,0E0],"parents":[2147483647,0,0,1,1,2,2,3,3,4,4,5,5,6,6,7,7,8,8,9,9,10,10,12,12,15,15,16,16,17,17,18,18,19,19,20,20,21,21,22,22,25,25,26,26,29,29,30,30,31,31,32,32,33,33,34,34,35,35,36,36,37,37,38,38,39,39,40,40],"right_children":[2,4,6,8,10,12,14,16,18,20,22,-1,24,-1,-1,26,28,30,32,34,36,38,40,-1,-1,42,44,-1,-1,46,48,50,52,54,56,58,60,62,64,66,68,-1,-1,-1,-1,-1,-1,-1,-1,-1,-1,-1,-1,-1,-1,-1,-1,-1,-1,-1,-1,-1,-1,-1,-1,-1,-1,-1,-1],"split_conditions":[1E0,1.33E1,2.2941E3,1.13E1,8.133E2,1.0222E3,7.9127E3,4.724E0,5.487E3,4.84E0,3.79E-1,-5.723853E-2,2.359E0,7.0026144E-2,-4.9586006E-2,7.37E-1,2.493238E0,1.143E3,1.108E3,1.042E1,8.38E-1,1.3414526E0,9.63E-1,5.3573467E-2,-5.4750938E-2,4.7E-1,9.06E-1,-3.491802E-2,7.601252E-2,5.697E2,1.3E1,5.424E2,1.15E1,2.67E1,4.401E0,5.03E2,1.4474E0,2E1,6.392E3,6.92E-1,5.43E1,-1.5765978E-3,-5.0105114E-2,1.5254959E-3,-4.486612E-2,5.534413E-2,-2.0566825E-2,-6.011003E-2,1.2290056E-2,-3.3253994E-2,2.6083475E-2,-5.1686563E-2,2.2832938E-2,4.0006176E-2,6.3161604E-2,9.928186E-3,-5.6024965E-2,-8.025601E-3,5.059535E-2,2.9292587E-2,-3.9833277E-2,-4.3727383E-2,1.1371349E-2,5.2384775E-2,-3.9331924E-2,-4.458668E-2,-4.826549E-3,9.937418E-3,-6.187562E-2],"split_indices":[13,7,7,7,6,7,3,9,8,4,1,0,2,0,0,1,0,5,5,2,1,0,1,0,0,4,1,0,0,3,7,3,7,7,9,5,2,7,8,1,3,0,0,0,0,0,0,0,0,0,0,0,0,0,0,0,0,0,0,0,0,0,0,0,0,0,0,0,0],"split_type":[0,0,0,0,0,0,0,0,0,0,0,0,0,0,0,0,0,0,0,0,0,0,0,0,0,0,0,0,0,0,0,0,0,0,0,0,0,0,0,0,0,0,0,0,0,0,0,0,0,0,0,0,0,0,0,0,0,0,0,0,0,0,0,0,0,0,0,0,0],"sum_hessian":[1.2967628E3,1.1601968E3,1.3656606E2,2.1645883E2,9.437379E2,1.2886855E2,7.6975136E0,1.1907037E2,9.738846E1,8.097457E2,1.3399219E2,1.13347755E2,1.5520789E1,1.9669957E0,5.730518E0,1.1659142E2,2.4789505E0,3.596741E1,6.1421043E1,7.0815674E2,1.01589005E2,5.3062855E1,8.092934E1,1.7285936E0,1.3792195E1,9.536372E1,2.1227703E1,1.0597693E0,1.4191813E0,2.8588417E1,7.378995E0,4.387622E1,1.7544825E1,6.791563E2,2.9000404E1,5.952543E1,4.2063576E1,2.3243395E1,2.981946E1,5.6130836E1,2.4798502E1,1.5328739E0,9.383085E1,9.9398775E0,1.1287826E1,2.1882603E1,6.7058144E0,6.296602E0,1.0823928E0,3.997971E1,3.896512E0,3.250898E0,1.4293927E1,3.3478787E2,3.4436847E2,1.7248108E1,1.1752296E1,2.3244707E1,3.6280724E1,5.4265356E0,3.663704E1,8.892358E0,1.4351036E1,2.7362398E1,2.4570615E0,3.0175076E1,2.5955763E1,1.0193982E0,2.3779104E1],"tree_param":{"num_deleted":"0","num_feature":"16","num_nodes":"69","size_leaf_vector":"1"}},{"base_weights":[4.0111165E-3,-2.1238108E-1,6.881197E-2,-3.7118417E-1,6.529729E-1,-5.3452206E-1,7.582033E-1,6.957431E-2,5.465553E-1,-5.6952E-1,8.0283776E-2,1.2020213E-2,7.6704687E-1,6.197514E-1,1.1430111E-1,-9.734947E-2,-5.749216E-1,3.0795664E-2,7.736528E-2,1.1472491E-3,6.417523E-2,-5.7518136E-2,5.5482406E-2,-4.9629074E-2,2.26522E-2,1.4663942E-2,-5.7811227E-2],"categories":[],"categories_nodes":[],"categories_segments":[],"categories_sizes":[],"default_left":[0,0,0,0,0,0,0,0,0,0,0,0,0,0,0,0,0,0,0,0,0,0,0,0,0,0,0],"id":35,"left_children":[1,3,-1,5,7,9,11,-1,13,15,-1,-1,17,19,21,23,25,-1,-1,-1,